<GAP_2017_1_20_0_21_37_48_267>
<Potential label="GAP_2017_1_20_0_21_37_48_267" init_args="IP GAP label=GAP_2017_1_20_0_21_37_48_267"/>
<GAP_params label="GAP_2017_1_20_0_21_37_48_267" gap_version="1476051872">
  <GAP_data do_core="F">
    <e0 Z="1" value="-148.31400199999998790"/>
    <e0 Z="2" value="-148.31400199999998790"/>
    <e0 Z="3" value="-148.31400199999998790"/>
    <e0 Z="4" value="-148.31400199999998790"/>
    <e0 Z="5" value="-148.31400199999998790"/>
    <e0 Z="6" value="-148.31400199999998790"/>
    <e0 Z="7" value="-148.31400199999998790"/>
    <e0 Z="8" value="-148.31400199999998790"/>
    <e0 Z="9" value="-148.31400199999998790"/>
    <e0 Z="10" value="-148.31400199999998790"/>
    <e0 Z="11" value="-148.31400199999998790"/>
    <e0 Z="12" value="-148.31400199999998790"/>
    <e0 Z="13" value="-148.31400199999998790"/>
    <e0 Z="14" value="-148.31400199999998790"/>
    <e0 Z="15" value="-148.31400199999998790"/>
    <e0 Z="16" value="-148.31400199999998790"/>
    <e0 Z="17" value="-148.31400199999998790"/>
    <e0 Z="18" value="-148.31400199999998790"/>
    <e0 Z="19" value="-148.31400199999998790"/>
    <e0 Z="20" value="-148.31400199999998790"/>
    <e0 Z="21" value="-148.31400199999998790"/>
    <e0 Z="22" value="-148.31400199999998790"/>
    <e0 Z="23" value="-148.31400199999998790"/>
    <e0 Z="24" value="-148.31400199999998790"/>
    <e0 Z="25" value="-148.31400199999998790"/>
    <e0 Z="26" value="-148.31400199999998790"/>
    <e0 Z="27" value="-148.31400199999998790"/>
    <e0 Z="28" value="-148.31400199999998790"/>
    <e0 Z="29" value="-148.31400199999998790"/>
    <e0 Z="30" value="-148.31400199999998790"/>
    <e0 Z="31" value="-148.31400199999998790"/>
    <e0 Z="32" value="-148.31400199999998790"/>
    <e0 Z="33" value="-148.31400199999998790"/>
    <e0 Z="34" value="-148.31400199999998790"/>
    <e0 Z="35" value="-148.31400199999998790"/>
    <e0 Z="36" value="-148.31400199999998790"/>
    <e0 Z="37" value="-148.31400199999998790"/>
    <e0 Z="38" value="-148.31400199999998790"/>
    <e0 Z="39" value="-148.31400199999998790"/>
    <e0 Z="40" value="-148.31400199999998790"/>
    <e0 Z="41" value="-148.31400199999998790"/>
    <e0 Z="42" value="-148.31400199999998790"/>
    <e0 Z="43" value="-148.31400199999998790"/>
    <e0 Z="44" value="-148.31400199999998790"/>
    <e0 Z="45" value="-148.31400199999998790"/>
    <e0 Z="46" value="-148.31400199999998790"/>
    <e0 Z="47" value="-148.31400199999998790"/>
    <e0 Z="48" value="-148.31400199999998790"/>
    <e0 Z="49" value="-148.31400199999998790"/>
    <e0 Z="50" value="-148.31400199999998790"/>
    <e0 Z="51" value="-148.31400199999998790"/>
    <e0 Z="52" value="-148.31400199999998790"/>
    <e0 Z="53" value="-148.31400199999998790"/>
    <e0 Z="54" value="-148.31400199999998790"/>
    <e0 Z="55" value="-148.31400199999998790"/>
    <e0 Z="56" value="-148.31400199999998790"/>
    <e0 Z="57" value="-148.31400199999998790"/>
    <e0 Z="58" value="-148.31400199999998790"/>
    <e0 Z="59" value="-148.31400199999998790"/>
    <e0 Z="60" value="-148.31400199999998790"/>
    <e0 Z="61" value="-148.31400199999998790"/>
    <e0 Z="62" value="-148.31400199999998790"/>
    <e0 Z="63" value="-148.31400199999998790"/>
    <e0 Z="64" value="-148.31400199999998790"/>
    <e0 Z="65" value="-148.31400199999998790"/>
    <e0 Z="66" value="-148.31400199999998790"/>
    <e0 Z="67" value="-148.31400199999998790"/>
    <e0 Z="68" value="-148.31400199999998790"/>
    <e0 Z="69" value="-148.31400199999998790"/>
    <e0 Z="70" value="-148.31400199999998790"/>
    <e0 Z="71" value="-148.31400199999998790"/>
    <e0 Z="72" value="-148.31400199999998790"/>
    <e0 Z="73" value="-148.31400199999998790"/>
    <e0 Z="74" value="-148.31400199999998790"/>
    <e0 Z="75" value="-148.31400199999998790"/>
    <e0 Z="76" value="-148.31400199999998790"/>
    <e0 Z="77" value="-148.31400199999998790"/>
    <e0 Z="78" value="-148.31400199999998790"/>
    <e0 Z="79" value="-148.31400199999998790"/>
    <e0 Z="80" value="-148.31400199999998790"/>
    <e0 Z="81" value="-148.31400199999998790"/>
    <e0 Z="82" value="-148.31400199999998790"/>
    <e0 Z="83" value="-148.31400199999998790"/>
    <e0 Z="84" value="-148.31400199999998790"/>
    <e0 Z="85" value="-148.31400199999998790"/>
    <e0 Z="86" value="-148.31400199999998790"/>
    <e0 Z="87" value="-148.31400199999998790"/>
    <e0 Z="88" value="-148.31400199999998790"/>
    <e0 Z="89" value="-148.31400199999998790"/>
    <e0 Z="90" value="-148.31400199999998790"/>
    <e0 Z="91" value="-148.31400199999998790"/>
    <e0 Z="92" value="-148.31400199999998790"/>
    <e0 Z="93" value="-148.31400199999998790"/>
    <e0 Z="94" value="-148.31400199999998790"/>
    <e0 Z="95" value="-148.31400199999998790"/>
    <e0 Z="96" value="-148.31400199999998790"/>
    <e0 Z="97" value="-148.31400199999998790"/>
    <e0 Z="98" value="-148.31400199999998790"/>
    <e0 Z="99" value="-148.31400199999998790"/>
    <e0 Z="100" value="-148.31400199999998790"/>
    <e0 Z="101" value="-148.31400199999998790"/>
    <e0 Z="102" value="-148.31400199999998790"/>
    <e0 Z="103" value="-148.31400199999998790"/>
    <e0 Z="104" value="-148.31400199999998790"/>
    <e0 Z="105" value="-148.31400199999998790"/>
    <e0 Z="106" value="-148.31400199999998790"/>
    <e0 Z="107" value="-148.31400199999998790"/>
    <e0 Z="108" value="-148.31400199999998790"/>
    <e0 Z="109" value="-148.31400199999998790"/>
    <e0 Z="110" value="-148.31400199999998790"/>
    <e0 Z="111" value="-148.31400199999998790"/>
    <e0 Z="112" value="-148.31400199999998790"/>
    <e0 Z="113" value="-148.31400199999998790"/>
    <e0 Z="114" value="-148.31400199999998790"/>
    <e0 Z="115" value="-148.31400199999998790"/>
    <e0 Z="116" value="-148.31400199999998790"/>
  </GAP_data>
  <gpSparse label="GAP_2017_1_20_0_21_37_48_267" n_coordinate="3">
    <gpCoordinates label="GAP_2017_1_20_0_21_37_48_2671" dimensions="1" signal_variance=".50000000000000000 " signal_mean=".00000000000000000 " sparsified="T" n_permutations="2" covariance_type="1" n_sparseX="15" sparseX_filename="carbon.xml.sparseX.GAP_2017_1_20_0_21_37_48_2671">
      <theta>  0.10000000000000000E+001 </theta>
      <descriptor> distance_Nb order=2 compact_clusters=T cutoff=3.7 n_sparse=15 covariance_type=ard_se delta=0.5 theta_uniform=1.0 sparse_method=uniform</descriptor>
      <permutation i="1">1  </permutation>
      <permutation i="2">1  </permutation>
      <sparseX i="1" alpha="326981.99711230688262731" sparseCutoff="1.00000000000000000"/>
      <sparseX i="2" alpha="-335729.15095732122426853" sparseCutoff="1.00000000000000000"/>
      <sparseX i="3" alpha="151673.12023146718274802" sparseCutoff="1.00000000000000000"/>
      <sparseX i="4" alpha="-135943.17986703556380235" sparseCutoff=".21371008996622209 "/>
      <sparseX i="5" alpha="-124688.78911458182847127" sparseCutoff=".01059924254886235 "/>
      <sparseX i="6" alpha="-190721.01792373129865155" sparseCutoff="1.00000000000000000"/>
      <sparseX i="7" alpha="-652030.15866722422651947" sparseCutoff="1.00000000000000000"/>
      <sparseX i="8" alpha="169894.60853359565953724" sparseCutoff=".78107281643700244 "/>
      <sparseX i="9" alpha="423600.05043475155252963" sparseCutoff="1.00000000000000000"/>
      <sparseX i="10" alpha="292066.11386127449804917" sparseCutoff="1.00000000000000000"/>
      <sparseX i="11" alpha="343194.25945813191356137" sparseCutoff="1.00000000000000000"/>
      <sparseX i="12" alpha="-807471.53737437748350203" sparseCutoff="1.00000000000000000"/>
      <sparseX i="13" alpha="927969.08519732835702598" sparseCutoff="1.00000000000000000"/>
      <sparseX i="14" alpha="-710302.74791960220318288" sparseCutoff="1.00000000000000000"/>
      <sparseX i="15" alpha="128929.01520517938479315" sparseCutoff="1.00000000000000000"/>
    </gpCoordinates>
    <gpCoordinates label="GAP_2017_1_20_0_21_37_48_2672" dimensions="3" signal_variance=".00300000000000000 " signal_mean=".00000000000000000 " sparsified="T" n_permutations="6" covariance_type="1" n_sparseX="200" sparseX_filename="carbon.xml.sparseX.GAP_2017_1_20_0_21_37_48_2672">
      <theta>  0.10000000000000000E+001  0.10000000000000000E+001  0.10000000000000000E+001 </theta>
      <descriptor> distance_Nb order=3 compact_clusters=T cutoff=3.0 config_type_n_sparse=bulk_amo:125:surf_amo:50:bulk_cryst:25 covariance_type=ard_se delta=0.003 theta_uniform=1.0 sparse_method=uniform</descriptor>
      <permutation i="1">1 2 3  </permutation>
      <permutation i="2">2 1 3  </permutation>
      <permutation i="3">1 3 2  </permutation>
      <permutation i="4">3 1 2  </permutation>
      <permutation i="5">2 3 1  </permutation>
      <permutation i="6">3 2 1  </permutation>
      <sparseX i="1" alpha="-45718.13825890742737101" sparseCutoff=".58859940780789288 "/>
      <sparseX i="2" alpha="-86243.28269495577842463" sparseCutoff="1.00000000000000000"/>
      <sparseX i="3" alpha="-152345.61736950758495368" sparseCutoff="1.00000000000000000"/>
      <sparseX i="4" alpha="340448.22654682956635952" sparseCutoff=".58859940780789288 "/>
      <sparseX i="5" alpha="174346.06623234358266927" sparseCutoff=".41861281483767993 "/>
      <sparseX i="6" alpha="125926.99038600866333582" sparseCutoff=".58859940780789288 "/>
      <sparseX i="7" alpha="193611.50633569556521252" sparseCutoff=".58859940780789288 "/>
      <sparseX i="8" alpha="243653.88065496724448167" sparseCutoff="1.00000000000000000"/>
      <sparseX i="9" alpha="-47.93017126282411056" sparseCutoff=".00061719245943925 "/>
      <sparseX i="10" alpha="176074.64785022957948968" sparseCutoff=".31997231514495511 "/>
      <sparseX i="11" alpha="304521.46004098566481844" sparseCutoff=".40160451556424659 "/>
      <sparseX i="12" alpha="-75.42292471568130452" sparseCutoff=".00061719245943925 "/>
      <sparseX i="13" alpha="154.43722784835605921" sparseCutoff=".00019748450013679 "/>
      <sparseX i="14" alpha="475.31896688861849043" sparseCutoff=".00061719245943925 "/>
      <sparseX i="15" alpha="1173.74896070149566185" sparseCutoff=".00024786727868301 "/>
      <sparseX i="16" alpha="555.75306724111555923" sparseCutoff=".00061171731278435 "/>
      <sparseX i="17" alpha="-717.84370789210981911" sparseCutoff=".00038492877064419 "/>
      <sparseX i="18" alpha="375946.29023134702583775" sparseCutoff=".31997231514495511 "/>
      <sparseX i="19" alpha="246606.61439653090201318" sparseCutoff=".40160451556424659 "/>
      <sparseX i="20" alpha="-174448.91226830222876742" sparseCutoff=".99112894758974512 "/>
      <sparseX i="21" alpha="508756.81677970895543694" sparseCutoff=".31713382396747364 "/>
      <sparseX i="22" alpha="225542.23775883539929055" sparseCutoff=".62367704717896200 "/>
      <sparseX i="23" alpha="329327.98172936314949766" sparseCutoff="1.00000000000000000"/>
      <sparseX i="24" alpha="-453383.52695315360324457" sparseCutoff=".99805611283674311 "/>
      <sparseX i="25" alpha="-561733.08486325864214450" sparseCutoff=".46324373579769934 "/>
      <sparseX i="26" alpha="271841.09001284319674596" sparseCutoff="1.00000000000000000"/>
      <sparseX i="27" alpha="-115546.27064541992149316" sparseCutoff="1.00000000000000000"/>
      <sparseX i="28" alpha="71039.39140292706724722" sparseCutoff=".22457789531052241 "/>
      <sparseX i="29" alpha="-120728.40236111644480843" sparseCutoff=".22457789531052241 "/>
      <sparseX i="30" alpha="-71708.14450679928995669" sparseCutoff=".15785477273688739 "/>
      <sparseX i="31" alpha="2564.87989901240598556" sparseCutoff=".00084907443738439 "/>
      <sparseX i="32" alpha="29684.37614786281847046" sparseCutoff=".00536837700750042 "/>
      <sparseX i="33" alpha="250.27443899563354535" sparseCutoff=".00433904458398710 "/>
      <sparseX i="34" alpha="-75.39490565448116399" sparseCutoff=".00061719245943925 "/>
      <sparseX i="35" alpha="100649.28538949480571318" sparseCutoff=".87057102792721230 "/>
      <sparseX i="36" alpha="356370.45890358323231339" sparseCutoff="1.00000000000000000"/>
      <sparseX i="37" alpha="-125027.21372770720336121" sparseCutoff=".61237662254641467 "/>
      <sparseX i="38" alpha="111267.91487111381138675" sparseCutoff=".61237662254641467 "/>
      <sparseX i="39" alpha="-176010.30158094409853220" sparseCutoff="1.00000000000000000"/>
      <sparseX i="40" alpha="-470642.63663382653612643" sparseCutoff=".40104648533241055 "/>
      <sparseX i="41" alpha="-702.98682892231556707" sparseCutoff=".00021420860175466 "/>
      <sparseX i="42" alpha="-124.30114392983412586" sparseCutoff=".00005560061652903 "/>
      <sparseX i="43" alpha="490988.95680264814291149" sparseCutoff="1.00000000000000000"/>
      <sparseX i="44" alpha="12177.59323200754806749" sparseCutoff=".11202547852020001 "/>
      <sparseX i="45" alpha="201427.00084395598969422" sparseCutoff=".47674449755794573 "/>
      <sparseX i="46" alpha="-7194.43900996537013270" sparseCutoff=".10409680871182325 "/>
      <sparseX i="47" alpha="-232720.47190656201564707" sparseCutoff=".10409680871182325 "/>
      <sparseX i="48" alpha="437589.16739162552403286" sparseCutoff="1.00000000000000000"/>
      <sparseX i="49" alpha="-123040.33563419943675399" sparseCutoff="1.00000000000000000"/>
      <sparseX i="50" alpha="-2995.67451447397161246" sparseCutoff=".02434709363304449 "/>
      <sparseX i="51" alpha="249208.46973660515504889" sparseCutoff="1.00000000000000000"/>
      <sparseX i="52" alpha="-380037.95040148100815713" sparseCutoff=".56075585890778856 "/>
      <sparseX i="53" alpha="216748.25537316131521948" sparseCutoff="1.00000000000000000"/>
      <sparseX i="54" alpha="-135191.02688847269746475" sparseCutoff="1.00000000000000000"/>
      <sparseX i="55" alpha="-148759.58537879108916968" sparseCutoff=".12814702553472038 "/>
      <sparseX i="56" alpha="19228.78081811284209834" sparseCutoff=".05938217146391062 "/>
      <sparseX i="57" alpha="96554.43420118199719582" sparseCutoff="1.00000000000000000"/>
      <sparseX i="58" alpha="96554.43463317819987424" sparseCutoff="1.00000000000000000"/>
      <sparseX i="59" alpha="-388114.91003598604584113" sparseCutoff="1.00000000000000000"/>
      <sparseX i="60" alpha="539805.33902228879742324" sparseCutoff="1.00000000000000000"/>
      <sparseX i="61" alpha="-522928.82158470730064437" sparseCutoff="1.00000000000000000"/>
      <sparseX i="62" alpha="-522928.82132071407977492" sparseCutoff="1.00000000000000000"/>
      <sparseX i="63" alpha="-1195.02246929238140183" sparseCutoff=".46056194876192863 "/>
      <sparseX i="64" alpha="211520.39218072162475437" sparseCutoff="1.00000000000000000"/>
      <sparseX i="65" alpha="-174495.40830366910086013" sparseCutoff="1.00000000000000000"/>
      <sparseX i="66" alpha="-11737.56720506789497449" sparseCutoff=".37587485084105238 "/>
      <sparseX i="67" alpha="-657604.27021091466303915" sparseCutoff="1.00000000000000000"/>
      <sparseX i="68" alpha="916291.78399107896257192" sparseCutoff="1.00000000000000000"/>
      <sparseX i="69" alpha="-28662.37314843426793232" sparseCutoff=".32696325726391584 "/>
      <sparseX i="70" alpha="567376.72871218272484839" sparseCutoff=".59782958102611661 "/>
      <sparseX i="71" alpha="919263.24917391629423946" sparseCutoff=".98947116806296087 "/>
      <sparseX i="72" alpha="-18412.52331193472127779" sparseCutoff="1.00000000000000000"/>
      <sparseX i="73" alpha="-12716.86448877274051483" sparseCutoff=".07160239673043040 "/>
      <sparseX i="74" alpha="-87662.36515675563714467" sparseCutoff="1.00000000000000000"/>
      <sparseX i="75" alpha="929045.00512759084813297" sparseCutoff="1.00000000000000000"/>
      <sparseX i="76" alpha="210928.15716363923274912" sparseCutoff="1.00000000000000000"/>
      <sparseX i="77" alpha="1301893.12815139861777425" sparseCutoff=".98034387513788523 "/>
      <sparseX i="78" alpha="-13914.79632127210425097" sparseCutoff=".04085480177358375 "/>
      <sparseX i="79" alpha="-322574.74756411276757717" sparseCutoff="1.00000000000000000"/>
      <sparseX i="80" alpha="-70394.02608759606664535" sparseCutoff=".01779307479138736 "/>
      <sparseX i="81" alpha="-290371.49480779835721478" sparseCutoff="1.00000000000000000"/>
      <sparseX i="82" alpha="296487.73117207211907953" sparseCutoff="1.00000000000000000"/>
      <sparseX i="83" alpha="-925077.06672454881481826" sparseCutoff="1.00000000000000000"/>
      <sparseX i="84" alpha="705025.63290045200847089" sparseCutoff="1.00000000000000000"/>
      <sparseX i="85" alpha="-24772.65540404396961094" sparseCutoff=".00573702018369615 "/>
      <sparseX i="86" alpha="638480.16825326904654503" sparseCutoff="1.00000000000000000"/>
      <sparseX i="87" alpha="-218420.49241723140585236" sparseCutoff="1.00000000000000000"/>
      <sparseX i="88" alpha="-869159.55373974610120058" sparseCutoff="1.00000000000000000"/>
      <sparseX i="89" alpha="85603.67929323125281371" sparseCutoff="1.00000000000000000"/>
      <sparseX i="90" alpha="293523.21195284731220454" sparseCutoff=".49032754469682943 "/>
      <sparseX i="91" alpha="-425283.48447350464994088" sparseCutoff=".43041807559705042 "/>
      <sparseX i="92" alpha="-26641.86175608698977157" sparseCutoff="1.00000000000000000"/>
      <sparseX i="93" alpha="256691.94935722334776074" sparseCutoff=".34577985565626634 "/>
      <sparseX i="94" alpha="208925.90436911684810184" sparseCutoff=".46422480090376145 "/>
      <sparseX i="95" alpha="-698753.71889706596266478" sparseCutoff="1.00000000000000000"/>
      <sparseX i="96" alpha="-150013.50122573238331825" sparseCutoff="1.00000000000000000"/>
      <sparseX i="97" alpha="129464.56005948026722763" sparseCutoff="1.00000000000000000"/>
      <sparseX i="98" alpha="103182.73791875710594468" sparseCutoff=".79477990748303073 "/>
      <sparseX i="99" alpha="-91999.08313255418033805" sparseCutoff="1.00000000000000000"/>
      <sparseX i="100" alpha="61756.18075359178328654" sparseCutoff=".28875388939781255 "/>
      <sparseX i="101" alpha="-1055317.61295369896106422" sparseCutoff="1.00000000000000000"/>
      <sparseX i="102" alpha="312243.54417330492287874" sparseCutoff="1.00000000000000000"/>
      <sparseX i="103" alpha="-36702.47778768319403753" sparseCutoff="1.00000000000000000"/>
      <sparseX i="104" alpha="1116.52086761515897706" sparseCutoff=".06191308916007682 "/>
      <sparseX i="105" alpha="-56915.50417244439449860" sparseCutoff=".03891007303232050 "/>
      <sparseX i="106" alpha="-9368.71202643275864830" sparseCutoff="1.00000000000000000"/>
      <sparseX i="107" alpha="-383391.59794635523576289" sparseCutoff=".87443901794175494 "/>
      <sparseX i="108" alpha="-37056.98432284157024696" sparseCutoff=".00878305789827183 "/>
      <sparseX i="109" alpha="-46538.21598776721657487" sparseCutoff=".02539501117424871 "/>
      <sparseX i="110" alpha="5769.01889414063862205" sparseCutoff=".01263196726791660 "/>
      <sparseX i="111" alpha="-262053.66669270422426052" sparseCutoff=".19756193698836658 "/>
      <sparseX i="112" alpha="-92539.09590856275463011" sparseCutoff=".23262087857326064 "/>
      <sparseX i="113" alpha="-478633.21345353516517207" sparseCutoff="1.00000000000000000"/>
      <sparseX i="114" alpha="-428097.47977373976027593" sparseCutoff=".91821446156831055 "/>
      <sparseX i="115" alpha="-456987.07578451134031639" sparseCutoff="1.00000000000000000"/>
      <sparseX i="116" alpha="18913.74030763053087867" sparseCutoff=".05633810653395710 "/>
      <sparseX i="117" alpha="393305.27532399649498984" sparseCutoff="1.00000000000000000"/>
      <sparseX i="118" alpha="66808.88214586037793197" sparseCutoff=".03788631343872968 "/>
      <sparseX i="119" alpha="194949.38129208493046463" sparseCutoff=".54951419811759361 "/>
      <sparseX i="120" alpha="-177473.54094347477075644" sparseCutoff=".09552167005365639 "/>
      <sparseX i="121" alpha="283754.58244524034671485" sparseCutoff=".10312908295780487 "/>
      <sparseX i="122" alpha="379899.42965148971416056" sparseCutoff="1.00000000000000000"/>
      <sparseX i="123" alpha="109231.82021858097868972" sparseCutoff=".68208004727333882 "/>
      <sparseX i="124" alpha="-15214.60305069899368391" sparseCutoff=".00717609917081203 "/>
      <sparseX i="125" alpha="-696794.45301188121084124" sparseCutoff="1.00000000000000000"/>
      <sparseX i="126" alpha="107558.85484217572957277" sparseCutoff="1.00000000000000000"/>
      <sparseX i="127" alpha="1988.02907784345961772" sparseCutoff=".97534114129796512 "/>
      <sparseX i="128" alpha="-48979.88990299269789830" sparseCutoff="1.00000000000000000"/>
      <sparseX i="129" alpha="308931.49549964140169322" sparseCutoff=".81821373812140419 "/>
      <sparseX i="130" alpha="-361473.02273264236282557" sparseCutoff="1.00000000000000000"/>
      <sparseX i="131" alpha="-198168.97890194490901195" sparseCutoff=".36335876657659893 "/>
      <sparseX i="132" alpha="-584507.44091399223543704" sparseCutoff=".36335876657659893 "/>
      <sparseX i="133" alpha="431493.71982252044836059" sparseCutoff=".97534114129796512 "/>
      <sparseX i="134" alpha="-680495.69893531769048423" sparseCutoff=".79803752116500470 "/>
      <sparseX i="135" alpha="373722.16128950356505811" sparseCutoff=".97534114129796512 "/>
      <sparseX i="136" alpha="75758.05980741990788374" sparseCutoff=".35439875409344090 "/>
      <sparseX i="137" alpha="219275.45525362080661580" sparseCutoff=".07600680830282668 "/>
      <sparseX i="138" alpha="-46179.77144360278180102" sparseCutoff="1.00000000000000000"/>
      <sparseX i="139" alpha="162397.81545567570719868" sparseCutoff="1.00000000000000000"/>
      <sparseX i="140" alpha="-2597.30083217065703138" sparseCutoff=".07792843455950016 "/>
      <sparseX i="141" alpha="89437.35812578264449257" sparseCutoff="1.00000000000000000"/>
      <sparseX i="142" alpha="-496160.11132256116252393" sparseCutoff=".89044189574153521 "/>
      <sparseX i="143" alpha="-37671.54324902133521391" sparseCutoff="1.00000000000000000"/>
      <sparseX i="144" alpha="-494669.94057821942260489" sparseCutoff=".36335876657659893 "/>
      <sparseX i="145" alpha="126862.15488572984759230" sparseCutoff=".18097224221055119 "/>
      <sparseX i="146" alpha="70878.34896146082610358" sparseCutoff=".16114526643055949 "/>
      <sparseX i="147" alpha="102541.91926331949071027" sparseCutoff=".36335876657659893 "/>
      <sparseX i="148" alpha="78593.67227043618913740" sparseCutoff=".02831597986278519 "/>
      <sparseX i="149" alpha="-71268.81637256738031283" sparseCutoff=".06575785071422739 "/>
      <sparseX i="150" alpha="64797.03798199466109509" sparseCutoff=".02926610906911678 "/>
      <sparseX i="151" alpha="32731.28739063045213697" sparseCutoff=".36335876657659893 "/>
      <sparseX i="152" alpha="119494.16615557808836456" sparseCutoff=".07792843455950016 "/>
      <sparseX i="153" alpha="-374811.67592286237049848" sparseCutoff="1.00000000000000000"/>
      <sparseX i="154" alpha="759775.47280716465320438" sparseCutoff="1.00000000000000000"/>
      <sparseX i="155" alpha="-523394.48418922309065238" sparseCutoff=".34220138672348466 "/>
      <sparseX i="156" alpha="-168248.03218375053256750" sparseCutoff=".11491717763143532 "/>
      <sparseX i="157" alpha="-317229.19494184647919610" sparseCutoff=".38907643194226693 "/>
      <sparseX i="158" alpha="-17460.55066514768986963" sparseCutoff=".38907643194226693 "/>
      <sparseX i="159" alpha="453338.62466233817394823" sparseCutoff="1.00000000000000000"/>
      <sparseX i="160" alpha="-126880.83857542938494589" sparseCutoff="1.00000000000000000"/>
      <sparseX i="161" alpha="-38331.75298382504115580" sparseCutoff=".59550050759076445 "/>
      <sparseX i="162" alpha="654636.62397348566446453" sparseCutoff=".97332100773792007 "/>
      <sparseX i="163" alpha="217864.35088585701305419" sparseCutoff="1.00000000000000000"/>
      <sparseX i="164" alpha="-123395.94875094768940471" sparseCutoff=".52906650693335211 "/>
      <sparseX i="165" alpha="182905.53149240018683486" sparseCutoff=".18842413088955057 "/>
      <sparseX i="166" alpha="-314549.01081938098650426" sparseCutoff=".24924559867462387 "/>
      <sparseX i="167" alpha="946617.06379647809080780" sparseCutoff="1.00000000000000000"/>
      <sparseX i="168" alpha="-265700.90956892882240936" sparseCutoff="1.00000000000000000"/>
      <sparseX i="169" alpha="-325834.06438661069842055" sparseCutoff=".84834506595534576 "/>
      <sparseX i="170" alpha="9853.31721071752690477" sparseCutoff=".38408656374096056 "/>
      <sparseX i="171" alpha="-29901.64427839770360151" sparseCutoff=".23599159757894306 "/>
      <sparseX i="172" alpha="-409119.07899005978833884" sparseCutoff="1.00000000000000000"/>
      <sparseX i="173" alpha="-876208.48127213411498815" sparseCutoff="1.00000000000000000"/>
      <sparseX i="174" alpha="1090562.54310939111746848" sparseCutoff="1.00000000000000000"/>
      <sparseX i="175" alpha="165220.54282400317606516" sparseCutoff=".10438463923619118 "/>
      <sparseX i="176" alpha="292184.58942570013459772" sparseCutoff=".36635873828728782 "/>
      <sparseX i="177" alpha="-435899.07800027990015224" sparseCutoff=".71912001144913795 "/>
      <sparseX i="178" alpha="110644.62659552217519376" sparseCutoff=".71912001144913795 "/>
      <sparseX i="179" alpha="17057.05046543536082027" sparseCutoff=".71912001144913795 "/>
      <sparseX i="180" alpha="215053.73696994408965111" sparseCutoff=".71912001144913795 "/>
      <sparseX i="181" alpha="17057.05023934348355397" sparseCutoff=".71912001144913795 "/>
      <sparseX i="182" alpha="62883.90853379996406147" sparseCutoff=".40870558249228162 "/>
      <sparseX i="183" alpha="441536.98905331344576553" sparseCutoff=".46243100574482954 "/>
      <sparseX i="184" alpha="406171.07761632499750704" sparseCutoff="1.00000000000000000"/>
      <sparseX i="185" alpha="-486368.55320522637339309" sparseCutoff="1.00000000000000000"/>
      <sparseX i="186" alpha="-69530.57571355422260240" sparseCutoff=".73490486017583234 "/>
      <sparseX i="187" alpha="-486368.55192110821371898" sparseCutoff="1.00000000000000000"/>
      <sparseX i="188" alpha="11032.17966403689024446" sparseCutoff=".56834127264610079 "/>
      <sparseX i="189" alpha="-304185.24092455150093883" sparseCutoff="1.00000000000000000"/>
      <sparseX i="190" alpha="20473.87433042298653163" sparseCutoff=".73490486017583234 "/>
      <sparseX i="191" alpha="-486368.55176851467695087" sparseCutoff="1.00000000000000000"/>
      <sparseX i="192" alpha="76406.71778845175867900" sparseCutoff="1.00000000000000000"/>
      <sparseX i="193" alpha="11022.05703158707547118" sparseCutoff=".50945423914572807 "/>
      <sparseX i="194" alpha="19411.19053343905761722" sparseCutoff="1.00000000000000000"/>
      <sparseX i="195" alpha="215053.73761742247734219" sparseCutoff=".71912001144913795 "/>
      <sparseX i="196" alpha="-277665.98568409471772611" sparseCutoff="1.00000000000000000"/>
      <sparseX i="197" alpha="-409687.50625732966000214" sparseCutoff="1.00000000000000000"/>
      <sparseX i="198" alpha="-57475.24579352934961207" sparseCutoff=".63527327645739351 "/>
      <sparseX i="199" alpha="-387009.66628705896437168" sparseCutoff="1.00000000000000000"/>
      <sparseX i="200" alpha="-32316.55911453919543419" sparseCutoff=".06355208774684212 "/>
    </gpCoordinates>
    <gpCoordinates label="GAP_2017_1_20_0_21_37_48_2673" dimensions="325" signal_variance=".10000000000000001 " signal_mean=".00000000000000000 " sparsified="T" n_permutations="1" covariance_type="2" zeta="4.00000000000000000" n_sparseX="4030" sparseX_filename="carbon.xml.sparseX.GAP_2017_1_20_0_21_37_48_2673">
      <descriptor> soap l_max=8 n_max=8 atom_sigma=0.5 zeta=4 cutoff=3.7 cutoff_transition_width=0.5 central_weight=1.0 config_type_n_sparse=bulk_amo:2500:surf_amo:1000:bulk_cryst:500:cluster:30 delta=0.1 f0=0.0 covariance_type=dot_product sparse_method=cur_points</descriptor>
      <permutation i="1">1  </permutation>
      <sparseX i="1" alpha="6140.67779914270522568" sparseCutoff="1.00000000000000000"/>
      <sparseX i="2" alpha="12171.45551204720504757" sparseCutoff="1.00000000000000000"/>
      <sparseX i="3" alpha="-57582.04646004436654039" sparseCutoff="1.00000000000000000"/>
      <sparseX i="4" alpha="94372.00340835447423160" sparseCutoff="1.00000000000000000"/>
      <sparseX i="5" alpha="45592.70362348917842610" sparseCutoff="1.00000000000000000"/>
      <sparseX i="6" alpha="-42944.69596368888596771" sparseCutoff="1.00000000000000000"/>
      <sparseX i="7" alpha="33814.05255806750938063" sparseCutoff="1.00000000000000000"/>
      <sparseX i="8" alpha="49726.42618102132837521" sparseCutoff="1.00000000000000000"/>
      <sparseX i="9" alpha="-14482.54114713577655493" sparseCutoff="1.00000000000000000"/>
      <sparseX i="10" alpha="-32732.49632828848916688" sparseCutoff="1.00000000000000000"/>
      <sparseX i="11" alpha="71913.08364470595552120" sparseCutoff="1.00000000000000000"/>
      <sparseX i="12" alpha="-12082.58341381983154861" sparseCutoff="1.00000000000000000"/>
      <sparseX i="13" alpha="-4498.71196571221844351" sparseCutoff="1.00000000000000000"/>
      <sparseX i="14" alpha="-15576.25250848357427458" sparseCutoff="1.00000000000000000"/>
      <sparseX i="15" alpha="1086.80174950241257648" sparseCutoff="1.00000000000000000"/>
      <sparseX i="16" alpha="27206.85955493813889916" sparseCutoff="1.00000000000000000"/>
      <sparseX i="17" alpha="-36421.05885338369262172" sparseCutoff="1.00000000000000000"/>
      <sparseX i="18" alpha="-78570.80483381025260314" sparseCutoff="1.00000000000000000"/>
      <sparseX i="19" alpha="-11840.27482970947858121" sparseCutoff="1.00000000000000000"/>
      <sparseX i="20" alpha="-7635.43082811878775829" sparseCutoff="1.00000000000000000"/>
      <sparseX i="21" alpha="31816.72088994580190047" sparseCutoff="1.00000000000000000"/>
      <sparseX i="22" alpha="-1988.32608298795435076" sparseCutoff="1.00000000000000000"/>
      <sparseX i="23" alpha="-24947.06206852953619091" sparseCutoff="1.00000000000000000"/>
      <sparseX i="24" alpha="4612.31498830117561738" sparseCutoff="1.00000000000000000"/>
      <sparseX i="25" alpha="65340.89116558854584582" sparseCutoff="1.00000000000000000"/>
      <sparseX i="26" alpha="19494.89297606858599465" sparseCutoff="1.00000000000000000"/>
      <sparseX i="27" alpha="87611.70741624855145346" sparseCutoff="1.00000000000000000"/>
      <sparseX i="28" alpha="2669.90865780351850844" sparseCutoff="1.00000000000000000"/>
      <sparseX i="29" alpha="-23219.76851798888310441" sparseCutoff="1.00000000000000000"/>
      <sparseX i="30" alpha="-48251.29142301987303654" sparseCutoff="1.00000000000000000"/>
      <sparseX i="31" alpha="-37881.03199561200744938" sparseCutoff="1.00000000000000000"/>
      <sparseX i="32" alpha="-16231.80628819369485427" sparseCutoff="1.00000000000000000"/>
      <sparseX i="33" alpha="-50286.18721629158244468" sparseCutoff="1.00000000000000000"/>
      <sparseX i="34" alpha="47926.85240491799049778" sparseCutoff="1.00000000000000000"/>
      <sparseX i="35" alpha="29390.24105845164740458" sparseCutoff="1.00000000000000000"/>
      <sparseX i="36" alpha="6220.95002304500394530" sparseCutoff="1.00000000000000000"/>
      <sparseX i="37" alpha="2616.44350284064466905" sparseCutoff="1.00000000000000000"/>
      <sparseX i="38" alpha="96892.67044384304608684" sparseCutoff="1.00000000000000000"/>
      <sparseX i="39" alpha="59474.19848171288322192" sparseCutoff="1.00000000000000000"/>
      <sparseX i="40" alpha="-13240.14081547841124120" sparseCutoff="1.00000000000000000"/>
      <sparseX i="41" alpha="-7539.91964808913417073" sparseCutoff="1.00000000000000000"/>
      <sparseX i="42" alpha="-14701.59454025348713913" sparseCutoff="1.00000000000000000"/>
      <sparseX i="43" alpha="10152.91601248947154090" sparseCutoff="1.00000000000000000"/>
      <sparseX i="44" alpha="26535.03180187763427966" sparseCutoff="1.00000000000000000"/>
      <sparseX i="45" alpha="30510.91306456945312675" sparseCutoff="1.00000000000000000"/>
      <sparseX i="46" alpha="447.91916283890009254" sparseCutoff="1.00000000000000000"/>
      <sparseX i="47" alpha="-7184.73113564156119537" sparseCutoff="1.00000000000000000"/>
      <sparseX i="48" alpha="-111961.76930140472541098" sparseCutoff="1.00000000000000000"/>
      <sparseX i="49" alpha="-49925.84147110975754913" sparseCutoff="1.00000000000000000"/>
      <sparseX i="50" alpha="-95450.27496884480933659" sparseCutoff="1.00000000000000000"/>
      <sparseX i="51" alpha="-65118.70802157044090563" sparseCutoff="1.00000000000000000"/>
      <sparseX i="52" alpha="79213.34517231513746083" sparseCutoff="1.00000000000000000"/>
      <sparseX i="53" alpha="19052.21790589035663288" sparseCutoff="1.00000000000000000"/>
      <sparseX i="54" alpha="13312.26815303608236718" sparseCutoff="1.00000000000000000"/>
      <sparseX i="55" alpha="-157681.57541582858539186" sparseCutoff="1.00000000000000000"/>
      <sparseX i="56" alpha="-130564.76344770439027343" sparseCutoff="1.00000000000000000"/>
      <sparseX i="57" alpha="8958.36034398221090669" sparseCutoff="1.00000000000000000"/>
      <sparseX i="58" alpha="105872.61003426650131587" sparseCutoff="1.00000000000000000"/>
      <sparseX i="59" alpha="-18574.88297950323612895" sparseCutoff="1.00000000000000000"/>
      <sparseX i="60" alpha="59095.60390868655667873" sparseCutoff="1.00000000000000000"/>
      <sparseX i="61" alpha="53520.97218086564680561" sparseCutoff="1.00000000000000000"/>
      <sparseX i="62" alpha="92765.31173109964584000" sparseCutoff="1.00000000000000000"/>
      <sparseX i="63" alpha="5167.23519836071409372" sparseCutoff="1.00000000000000000"/>
      <sparseX i="64" alpha="49494.14336374099366367" sparseCutoff="1.00000000000000000"/>
      <sparseX i="65" alpha="28123.47841820657777134" sparseCutoff="1.00000000000000000"/>
      <sparseX i="66" alpha="-29666.47009673927459517" sparseCutoff="1.00000000000000000"/>
      <sparseX i="67" alpha="83471.69140574554330669" sparseCutoff="1.00000000000000000"/>
      <sparseX i="68" alpha="107746.03186216969334055" sparseCutoff="1.00000000000000000"/>
      <sparseX i="69" alpha="-37737.54936906955117593" sparseCutoff="1.00000000000000000"/>
      <sparseX i="70" alpha="52706.77239243076473940" sparseCutoff="1.00000000000000000"/>
      <sparseX i="71" alpha="15050.08277265960532532" sparseCutoff="1.00000000000000000"/>
      <sparseX i="72" alpha="53596.58532054817624157" sparseCutoff="1.00000000000000000"/>
      <sparseX i="73" alpha="-13629.83704003408820427" sparseCutoff="1.00000000000000000"/>
      <sparseX i="74" alpha="9201.78497955016609922" sparseCutoff="1.00000000000000000"/>
      <sparseX i="75" alpha="255.77490213923769602" sparseCutoff="1.00000000000000000"/>
      <sparseX i="76" alpha="-4436.57194079786768270" sparseCutoff="1.00000000000000000"/>
      <sparseX i="77" alpha="-2728.36892586100566405" sparseCutoff="1.00000000000000000"/>
      <sparseX i="78" alpha="43477.15907506804796867" sparseCutoff="1.00000000000000000"/>
      <sparseX i="79" alpha="-24498.76887472184535000" sparseCutoff="1.00000000000000000"/>
      <sparseX i="80" alpha="-1065.82101183712188686" sparseCutoff="1.00000000000000000"/>
      <sparseX i="81" alpha="-65808.61197991992230527" sparseCutoff="1.00000000000000000"/>
      <sparseX i="82" alpha="31473.62126340185204754" sparseCutoff="1.00000000000000000"/>
      <sparseX i="83" alpha="4998.51647619372852205" sparseCutoff="1.00000000000000000"/>
      <sparseX i="84" alpha="5566.26609755155459425" sparseCutoff="1.00000000000000000"/>
      <sparseX i="85" alpha="56261.83390584396693157" sparseCutoff="1.00000000000000000"/>
      <sparseX i="86" alpha="12141.32928671006993682" sparseCutoff="1.00000000000000000"/>
      <sparseX i="87" alpha="-27975.66988919146751869" sparseCutoff="1.00000000000000000"/>
      <sparseX i="88" alpha="-12588.18916556730073353" sparseCutoff="1.00000000000000000"/>
      <sparseX i="89" alpha="-9763.78080816508372664" sparseCutoff="1.00000000000000000"/>
      <sparseX i="90" alpha="12369.95909467537603632" sparseCutoff="1.00000000000000000"/>
      <sparseX i="91" alpha="-47427.95594505700864829" sparseCutoff="1.00000000000000000"/>
      <sparseX i="92" alpha="-18084.46410334021129529" sparseCutoff="1.00000000000000000"/>
      <sparseX i="93" alpha="-124984.61362150197965093" sparseCutoff="1.00000000000000000"/>
      <sparseX i="94" alpha="38111.70135960826883093" sparseCutoff="1.00000000000000000"/>
      <sparseX i="95" alpha="-19168.20415315187710803" sparseCutoff="1.00000000000000000"/>
      <sparseX i="96" alpha="-24324.00351262931872043" sparseCutoff="1.00000000000000000"/>
      <sparseX i="97" alpha="58920.74460748582350789" sparseCutoff="1.00000000000000000"/>
      <sparseX i="98" alpha="71459.73836134305747692" sparseCutoff="1.00000000000000000"/>
      <sparseX i="99" alpha="-150251.93473437754437327" sparseCutoff="1.00000000000000000"/>
      <sparseX i="100" alpha="-24754.63638036296833889" sparseCutoff="1.00000000000000000"/>
      <sparseX i="101" alpha="-45922.50445743311138358" sparseCutoff="1.00000000000000000"/>
      <sparseX i="102" alpha="15643.87422742286253197" sparseCutoff="1.00000000000000000"/>
      <sparseX i="103" alpha="108997.78440075239632279" sparseCutoff="1.00000000000000000"/>
      <sparseX i="104" alpha="-32352.45238298086405848" sparseCutoff="1.00000000000000000"/>
      <sparseX i="105" alpha="15449.67357316102607001" sparseCutoff="1.00000000000000000"/>
      <sparseX i="106" alpha="-78114.55389683226530906" sparseCutoff="1.00000000000000000"/>
      <sparseX i="107" alpha="104305.38675152725772932" sparseCutoff="1.00000000000000000"/>
      <sparseX i="108" alpha="-30496.57941359427059069" sparseCutoff="1.00000000000000000"/>
      <sparseX i="109" alpha="26109.37637200195604237" sparseCutoff="1.00000000000000000"/>
      <sparseX i="110" alpha="11408.31220253010542365" sparseCutoff="1.00000000000000000"/>
      <sparseX i="111" alpha="29207.06621956139497343" sparseCutoff="1.00000000000000000"/>
      <sparseX i="112" alpha="-35795.58612645677931141" sparseCutoff="1.00000000000000000"/>
      <sparseX i="113" alpha="-51965.11688698420039145" sparseCutoff="1.00000000000000000"/>
      <sparseX i="114" alpha="-99415.59770346747245640" sparseCutoff="1.00000000000000000"/>
      <sparseX i="115" alpha="-7078.84851964891549869" sparseCutoff="1.00000000000000000"/>
      <sparseX i="116" alpha="-64601.03323502626153640" sparseCutoff="1.00000000000000000"/>
      <sparseX i="117" alpha="-27766.23591815458348719" sparseCutoff="1.00000000000000000"/>
      <sparseX i="118" alpha="27051.29512755918767652" sparseCutoff="1.00000000000000000"/>
      <sparseX i="119" alpha="7645.96722325043083401" sparseCutoff="1.00000000000000000"/>
      <sparseX i="120" alpha="-63707.47054024304088671" sparseCutoff="1.00000000000000000"/>
      <sparseX i="121" alpha="-51470.56953375856392086" sparseCutoff="1.00000000000000000"/>
      <sparseX i="122" alpha="794.34548463206738234" sparseCutoff="1.00000000000000000"/>
      <sparseX i="123" alpha="98684.03262052714126185" sparseCutoff="1.00000000000000000"/>
      <sparseX i="124" alpha="60171.42993895331164822" sparseCutoff="1.00000000000000000"/>
      <sparseX i="125" alpha="-14622.70012415621749824" sparseCutoff="1.00000000000000000"/>
      <sparseX i="126" alpha="-2860.66860684733455855" sparseCutoff="1.00000000000000000"/>
      <sparseX i="127" alpha="70046.85733302045264281" sparseCutoff="1.00000000000000000"/>
      <sparseX i="128" alpha="79066.68169120766106062" sparseCutoff="1.00000000000000000"/>
      <sparseX i="129" alpha="-89347.58052525976381730" sparseCutoff="1.00000000000000000"/>
      <sparseX i="130" alpha="54826.58449536238913424" sparseCutoff="1.00000000000000000"/>
      <sparseX i="131" alpha="14795.01407802309404360" sparseCutoff="1.00000000000000000"/>
      <sparseX i="132" alpha="-4979.11721067881444469" sparseCutoff="1.00000000000000000"/>
      <sparseX i="133" alpha="75386.54353820836695377" sparseCutoff="1.00000000000000000"/>
      <sparseX i="134" alpha="-73374.49461785498715471" sparseCutoff="1.00000000000000000"/>
      <sparseX i="135" alpha="-610.72995133075244212" sparseCutoff="1.00000000000000000"/>
      <sparseX i="136" alpha="26495.68192942985842819" sparseCutoff="1.00000000000000000"/>
      <sparseX i="137" alpha="-68843.92270304780686274" sparseCutoff="1.00000000000000000"/>
      <sparseX i="138" alpha="-19834.15303792120539583" sparseCutoff="1.00000000000000000"/>
      <sparseX i="139" alpha="40692.03744093612476718" sparseCutoff="1.00000000000000000"/>
      <sparseX i="140" alpha="6509.09708395500092593" sparseCutoff="1.00000000000000000"/>
      <sparseX i="141" alpha="82176.10325159860076383" sparseCutoff="1.00000000000000000"/>
      <sparseX i="142" alpha="-1421.39672813475544899" sparseCutoff="1.00000000000000000"/>
      <sparseX i="143" alpha="-16679.93702000612029224" sparseCutoff="1.00000000000000000"/>
      <sparseX i="144" alpha="-35302.78380054538865807" sparseCutoff="1.00000000000000000"/>
      <sparseX i="145" alpha="-20570.39204438788146945" sparseCutoff="1.00000000000000000"/>
      <sparseX i="146" alpha="3327.19873117400356932" sparseCutoff="1.00000000000000000"/>
      <sparseX i="147" alpha="-5010.07056941499467939" sparseCutoff="1.00000000000000000"/>
      <sparseX i="148" alpha="-5592.46238435889063112" sparseCutoff="1.00000000000000000"/>
      <sparseX i="149" alpha="20060.61299817805775092" sparseCutoff="1.00000000000000000"/>
      <sparseX i="150" alpha="37286.29003083361021709" sparseCutoff="1.00000000000000000"/>
      <sparseX i="151" alpha="13272.18538663051913318" sparseCutoff="1.00000000000000000"/>
      <sparseX i="152" alpha="-6623.31220851681882777" sparseCutoff="1.00000000000000000"/>
      <sparseX i="153" alpha="-11820.76185173901831149" sparseCutoff="1.00000000000000000"/>
      <sparseX i="154" alpha="172634.05660859579802491" sparseCutoff="1.00000000000000000"/>
      <sparseX i="155" alpha="15450.00466419734948431" sparseCutoff="1.00000000000000000"/>
      <sparseX i="156" alpha="8365.19488879250457103" sparseCutoff="1.00000000000000000"/>
      <sparseX i="157" alpha="-23290.12619413675929536" sparseCutoff="1.00000000000000000"/>
      <sparseX i="158" alpha="82491.49912904450320639" sparseCutoff="1.00000000000000000"/>
      <sparseX i="159" alpha="-7158.88196088244603743" sparseCutoff="1.00000000000000000"/>
      <sparseX i="160" alpha="-53762.85156900613947073" sparseCutoff="1.00000000000000000"/>
      <sparseX i="161" alpha="10321.03426575654521002" sparseCutoff="1.00000000000000000"/>
      <sparseX i="162" alpha="-21787.25316905672661960" sparseCutoff="1.00000000000000000"/>
      <sparseX i="163" alpha="-4460.14101751681391761" sparseCutoff="1.00000000000000000"/>
      <sparseX i="164" alpha="95779.16039586449915078" sparseCutoff="1.00000000000000000"/>
      <sparseX i="165" alpha="-61664.62273730245215120" sparseCutoff="1.00000000000000000"/>
      <sparseX i="166" alpha="-77646.59578903923102189" sparseCutoff="1.00000000000000000"/>
      <sparseX i="167" alpha="7670.43242333073339978" sparseCutoff="1.00000000000000000"/>
      <sparseX i="168" alpha="-70704.36964363542210776" sparseCutoff="1.00000000000000000"/>
      <sparseX i="169" alpha="-21386.84404626453397213" sparseCutoff="1.00000000000000000"/>
      <sparseX i="170" alpha="-43159.73324929430236807" sparseCutoff="1.00000000000000000"/>
      <sparseX i="171" alpha="99314.61802030348917469" sparseCutoff="1.00000000000000000"/>
      <sparseX i="172" alpha="-44274.00982223392202286" sparseCutoff="1.00000000000000000"/>
      <sparseX i="173" alpha="47540.83405187813332304" sparseCutoff="1.00000000000000000"/>
      <sparseX i="174" alpha="-37428.89750377689779270" sparseCutoff="1.00000000000000000"/>
      <sparseX i="175" alpha="12306.92260319023080228" sparseCutoff="1.00000000000000000"/>
      <sparseX i="176" alpha="-13140.54072934260693728" sparseCutoff="1.00000000000000000"/>
      <sparseX i="177" alpha="-13856.79466527936710918" sparseCutoff="1.00000000000000000"/>
      <sparseX i="178" alpha="-30022.11980266332466272" sparseCutoff="1.00000000000000000"/>
      <sparseX i="179" alpha="-63104.31418308284628438" sparseCutoff="1.00000000000000000"/>
      <sparseX i="180" alpha="49742.78365927663253387" sparseCutoff="1.00000000000000000"/>
      <sparseX i="181" alpha="-102128.25487476561102085" sparseCutoff="1.00000000000000000"/>
      <sparseX i="182" alpha="15265.63336355830688262" sparseCutoff="1.00000000000000000"/>
      <sparseX i="183" alpha="-2638.18804918194837228" sparseCutoff="1.00000000000000000"/>
      <sparseX i="184" alpha="9453.81412351369908720" sparseCutoff="1.00000000000000000"/>
      <sparseX i="185" alpha="-86097.44805527463904582" sparseCutoff="1.00000000000000000"/>
      <sparseX i="186" alpha="34843.68873281710693846" sparseCutoff="1.00000000000000000"/>
      <sparseX i="187" alpha="-305955.48041016212664545" sparseCutoff="1.00000000000000000"/>
      <sparseX i="188" alpha="21147.45419899672560859" sparseCutoff="1.00000000000000000"/>
      <sparseX i="189" alpha="-306370.08094673120649531" sparseCutoff="1.00000000000000000"/>
      <sparseX i="190" alpha="185082.08908759179757908" sparseCutoff="1.00000000000000000"/>
      <sparseX i="191" alpha="-22988.63333266658446519" sparseCutoff="1.00000000000000000"/>
      <sparseX i="192" alpha="110637.21440104306384455" sparseCutoff="1.00000000000000000"/>
      <sparseX i="193" alpha="-14796.49239071257397882" sparseCutoff="1.00000000000000000"/>
      <sparseX i="194" alpha="-224006.24693565274355933" sparseCutoff="1.00000000000000000"/>
      <sparseX i="195" alpha="-15449.00043104223186674" sparseCutoff="1.00000000000000000"/>
      <sparseX i="196" alpha="115139.29184523825824726" sparseCutoff="1.00000000000000000"/>
      <sparseX i="197" alpha="-42535.91504178375907941" sparseCutoff="1.00000000000000000"/>
      <sparseX i="198" alpha="13993.05498295268807851" sparseCutoff="1.00000000000000000"/>
      <sparseX i="199" alpha="-60679.54180770237871911" sparseCutoff="1.00000000000000000"/>
      <sparseX i="200" alpha="56377.39043535682139918" sparseCutoff="1.00000000000000000"/>
      <sparseX i="201" alpha="-184794.85156623015063815" sparseCutoff="1.00000000000000000"/>
      <sparseX i="202" alpha="-71182.87218552143895067" sparseCutoff="1.00000000000000000"/>
      <sparseX i="203" alpha="157456.22664400478242896" sparseCutoff="1.00000000000000000"/>
      <sparseX i="204" alpha="59776.58149615769798402" sparseCutoff="1.00000000000000000"/>
      <sparseX i="205" alpha="-78136.56784910954593215" sparseCutoff="1.00000000000000000"/>
      <sparseX i="206" alpha="-2849.63743035646984936" sparseCutoff="1.00000000000000000"/>
      <sparseX i="207" alpha="80619.40751241261023097" sparseCutoff="1.00000000000000000"/>
      <sparseX i="208" alpha="-36876.30539977164880838" sparseCutoff="1.00000000000000000"/>
      <sparseX i="209" alpha="-65750.22580201239907183" sparseCutoff="1.00000000000000000"/>
      <sparseX i="210" alpha="39073.40002544513117755" sparseCutoff="1.00000000000000000"/>
      <sparseX i="211" alpha="-25004.02440823259894387" sparseCutoff="1.00000000000000000"/>
      <sparseX i="212" alpha="-9264.45863023162382888" sparseCutoff="1.00000000000000000"/>
      <sparseX i="213" alpha="-22699.78888417436246527" sparseCutoff="1.00000000000000000"/>
      <sparseX i="214" alpha="-88854.66542796482099220" sparseCutoff="1.00000000000000000"/>
      <sparseX i="215" alpha="166148.70405453594867140" sparseCutoff="1.00000000000000000"/>
      <sparseX i="216" alpha="-285867.56263877643505111" sparseCutoff="1.00000000000000000"/>
      <sparseX i="217" alpha="-49722.24173828020866495" sparseCutoff="1.00000000000000000"/>
      <sparseX i="218" alpha="-132915.20069509770837612" sparseCutoff="1.00000000000000000"/>
      <sparseX i="219" alpha="-43780.24792695271025877" sparseCutoff="1.00000000000000000"/>
      <sparseX i="220" alpha="46546.46045713339844951" sparseCutoff="1.00000000000000000"/>
      <sparseX i="221" alpha="-19928.91124210938869510" sparseCutoff="1.00000000000000000"/>
      <sparseX i="222" alpha="-26903.51278202213143231" sparseCutoff="1.00000000000000000"/>
      <sparseX i="223" alpha="-51863.72552735856152140" sparseCutoff="1.00000000000000000"/>
      <sparseX i="224" alpha="-82141.35263629010296427" sparseCutoff="1.00000000000000000"/>
      <sparseX i="225" alpha="65044.59642436948342947" sparseCutoff="1.00000000000000000"/>
      <sparseX i="226" alpha="-75203.99333179286622908" sparseCutoff="1.00000000000000000"/>
      <sparseX i="227" alpha="10913.47078567456082965" sparseCutoff="1.00000000000000000"/>
      <sparseX i="228" alpha="19901.77385355564911151" sparseCutoff="1.00000000000000000"/>
      <sparseX i="229" alpha="-10373.69466310338248149" sparseCutoff="1.00000000000000000"/>
      <sparseX i="230" alpha="-125757.14628712131525390" sparseCutoff="1.00000000000000000"/>
      <sparseX i="231" alpha="-22457.49225532105265302" sparseCutoff="1.00000000000000000"/>
      <sparseX i="232" alpha="195331.08259485018788837" sparseCutoff="1.00000000000000000"/>
      <sparseX i="233" alpha="-84525.19037672378181014" sparseCutoff="1.00000000000000000"/>
      <sparseX i="234" alpha="194746.07563416659832001" sparseCutoff="1.00000000000000000"/>
      <sparseX i="235" alpha="-71404.98378288139065262" sparseCutoff="1.00000000000000000"/>
      <sparseX i="236" alpha="21438.77017969592634472" sparseCutoff="1.00000000000000000"/>
      <sparseX i="237" alpha="25324.53875978136420599" sparseCutoff="1.00000000000000000"/>
      <sparseX i="238" alpha="152485.35875195678090677" sparseCutoff="1.00000000000000000"/>
      <sparseX i="239" alpha="74991.71065052250924055" sparseCutoff="1.00000000000000000"/>
      <sparseX i="240" alpha="-85125.46591171566979028" sparseCutoff="1.00000000000000000"/>
      <sparseX i="241" alpha="-155782.13959714825614356" sparseCutoff="1.00000000000000000"/>
      <sparseX i="242" alpha="-188788.72790193001856096" sparseCutoff="1.00000000000000000"/>
      <sparseX i="243" alpha="13860.40834564827309805" sparseCutoff="1.00000000000000000"/>
      <sparseX i="244" alpha="69568.72148358388221823" sparseCutoff="1.00000000000000000"/>
      <sparseX i="245" alpha="-27424.44536870142474072" sparseCutoff="1.00000000000000000"/>
      <sparseX i="246" alpha="-120136.89894290725351311" sparseCutoff="1.00000000000000000"/>
      <sparseX i="247" alpha="102700.42431233383831568" sparseCutoff="1.00000000000000000"/>
      <sparseX i="248" alpha="43248.37049212504643947" sparseCutoff="1.00000000000000000"/>
      <sparseX i="249" alpha="-89076.07012911536730826" sparseCutoff="1.00000000000000000"/>
      <sparseX i="250" alpha="105411.06710360677971039" sparseCutoff="1.00000000000000000"/>
      <sparseX i="251" alpha="-98834.83068616320088040" sparseCutoff="1.00000000000000000"/>
      <sparseX i="252" alpha="58897.73609822538855951" sparseCutoff="1.00000000000000000"/>
      <sparseX i="253" alpha="9311.71295860228201491" sparseCutoff="1.00000000000000000"/>
      <sparseX i="254" alpha="-294183.09104128897888586" sparseCutoff="1.00000000000000000"/>
      <sparseX i="255" alpha="-124411.59178977967530955" sparseCutoff="1.00000000000000000"/>
      <sparseX i="256" alpha="-64569.04275627584866015" sparseCutoff="1.00000000000000000"/>
      <sparseX i="257" alpha="-46930.16808379285066621" sparseCutoff="1.00000000000000000"/>
      <sparseX i="258" alpha="2737.30785870193903975" sparseCutoff="1.00000000000000000"/>
      <sparseX i="259" alpha="-91800.97538012148288544" sparseCutoff="1.00000000000000000"/>
      <sparseX i="260" alpha="-22301.87357951671219780" sparseCutoff="1.00000000000000000"/>
      <sparseX i="261" alpha="-141131.81440264440607280" sparseCutoff="1.00000000000000000"/>
      <sparseX i="262" alpha="114752.54896724564605393" sparseCutoff="1.00000000000000000"/>
      <sparseX i="263" alpha="-121979.68149612826528028" sparseCutoff="1.00000000000000000"/>
      <sparseX i="264" alpha="-186266.91581397227128036" sparseCutoff="1.00000000000000000"/>
      <sparseX i="265" alpha="-57021.34204528331611073" sparseCutoff="1.00000000000000000"/>
      <sparseX i="266" alpha="-308605.62434307893272489" sparseCutoff="1.00000000000000000"/>
      <sparseX i="267" alpha="70813.71368545290897600" sparseCutoff="1.00000000000000000"/>
      <sparseX i="268" alpha="-6653.39327839558154665" sparseCutoff="1.00000000000000000"/>
      <sparseX i="269" alpha="-209812.36295309802517295" sparseCutoff="1.00000000000000000"/>
      <sparseX i="270" alpha="-45541.40158997015532805" sparseCutoff="1.00000000000000000"/>
      <sparseX i="271" alpha="5050.83676334095889615" sparseCutoff="1.00000000000000000"/>
      <sparseX i="272" alpha="-81841.65703330603719223" sparseCutoff="1.00000000000000000"/>
      <sparseX i="273" alpha="14823.66777826050747535" sparseCutoff="1.00000000000000000"/>
      <sparseX i="274" alpha="11920.94643139108120522" sparseCutoff="1.00000000000000000"/>
      <sparseX i="275" alpha="10858.07038502772775246" sparseCutoff="1.00000000000000000"/>
      <sparseX i="276" alpha="-81955.97357081796508282" sparseCutoff="1.00000000000000000"/>
      <sparseX i="277" alpha="-169690.79773949322407134" sparseCutoff="1.00000000000000000"/>
      <sparseX i="278" alpha="33935.45203731740184594" sparseCutoff="1.00000000000000000"/>
      <sparseX i="279" alpha="69696.10067154763964936" sparseCutoff="1.00000000000000000"/>
      <sparseX i="280" alpha="34328.10339370065048570" sparseCutoff="1.00000000000000000"/>
      <sparseX i="281" alpha="-20149.94081974988512229" sparseCutoff="1.00000000000000000"/>
      <sparseX i="282" alpha="271680.81552017404465005" sparseCutoff="1.00000000000000000"/>
      <sparseX i="283" alpha="50983.64565030679659685" sparseCutoff="1.00000000000000000"/>
      <sparseX i="284" alpha="-18622.97105514976283303" sparseCutoff="1.00000000000000000"/>
      <sparseX i="285" alpha="67256.59636450248945039" sparseCutoff="1.00000000000000000"/>
      <sparseX i="286" alpha="-97261.16124839386611711" sparseCutoff="1.00000000000000000"/>
      <sparseX i="287" alpha="-198449.81168424422503449" sparseCutoff="1.00000000000000000"/>
      <sparseX i="288" alpha="89280.88766826165374368" sparseCutoff="1.00000000000000000"/>
      <sparseX i="289" alpha="157675.73744596063625067" sparseCutoff="1.00000000000000000"/>
      <sparseX i="290" alpha="19304.76440597146938671" sparseCutoff="1.00000000000000000"/>
      <sparseX i="291" alpha="-37688.83589383667276707" sparseCutoff="1.00000000000000000"/>
      <sparseX i="292" alpha="48580.55271812118007801" sparseCutoff="1.00000000000000000"/>
      <sparseX i="293" alpha="-241921.62530871457420290" sparseCutoff="1.00000000000000000"/>
      <sparseX i="294" alpha="69086.81953799202165101" sparseCutoff="1.00000000000000000"/>
      <sparseX i="295" alpha="-216574.44350704885437153" sparseCutoff="1.00000000000000000"/>
      <sparseX i="296" alpha="-82340.35694903453986626" sparseCutoff="1.00000000000000000"/>
      <sparseX i="297" alpha="182434.91291142476256937" sparseCutoff="1.00000000000000000"/>
      <sparseX i="298" alpha="199945.04213752743089572" sparseCutoff="1.00000000000000000"/>
      <sparseX i="299" alpha="-77748.91455895960098132" sparseCutoff="1.00000000000000000"/>
      <sparseX i="300" alpha="-46124.90682351544819539" sparseCutoff="1.00000000000000000"/>
      <sparseX i="301" alpha="-16720.69682261859634309" sparseCutoff="1.00000000000000000"/>
      <sparseX i="302" alpha="-56113.06957175584830111" sparseCutoff="1.00000000000000000"/>
      <sparseX i="303" alpha="-31287.93812850391623215" sparseCutoff="1.00000000000000000"/>
      <sparseX i="304" alpha="51176.52305368176166667" sparseCutoff="1.00000000000000000"/>
      <sparseX i="305" alpha="-54503.85672933134628693" sparseCutoff="1.00000000000000000"/>
      <sparseX i="306" alpha="-57666.19535196313518099" sparseCutoff="1.00000000000000000"/>
      <sparseX i="307" alpha="-27738.94205501149554038" sparseCutoff="1.00000000000000000"/>
      <sparseX i="308" alpha="23883.66469162086650613" sparseCutoff="1.00000000000000000"/>
      <sparseX i="309" alpha="39142.04070253440295346" sparseCutoff="1.00000000000000000"/>
      <sparseX i="310" alpha="-58741.35584176101110643" sparseCutoff="1.00000000000000000"/>
      <sparseX i="311" alpha="98907.58610092681192327" sparseCutoff="1.00000000000000000"/>
      <sparseX i="312" alpha="-48374.45825367057113908" sparseCutoff="1.00000000000000000"/>
      <sparseX i="313" alpha="-29684.14649449068383547" sparseCutoff="1.00000000000000000"/>
      <sparseX i="314" alpha="-52798.76311124779749662" sparseCutoff="1.00000000000000000"/>
      <sparseX i="315" alpha="-9927.91124357490116381" sparseCutoff="1.00000000000000000"/>
      <sparseX i="316" alpha="-37152.46638200104644056" sparseCutoff="1.00000000000000000"/>
      <sparseX i="317" alpha="-21446.04551405416350462" sparseCutoff="1.00000000000000000"/>
      <sparseX i="318" alpha="108162.54114821944676805" sparseCutoff="1.00000000000000000"/>
      <sparseX i="319" alpha="54311.21937641833210364" sparseCutoff="1.00000000000000000"/>
      <sparseX i="320" alpha="-147340.20426599273923784" sparseCutoff="1.00000000000000000"/>
      <sparseX i="321" alpha="3078.70879576664356136" sparseCutoff="1.00000000000000000"/>
      <sparseX i="322" alpha="42139.46353159144200617" sparseCutoff="1.00000000000000000"/>
      <sparseX i="323" alpha="114561.01581957703456283" sparseCutoff="1.00000000000000000"/>
      <sparseX i="324" alpha="-139110.17094751540571451" sparseCutoff="1.00000000000000000"/>
      <sparseX i="325" alpha="-28123.46693626379419584" sparseCutoff="1.00000000000000000"/>
      <sparseX i="326" alpha="-140819.63093304258654825" sparseCutoff="1.00000000000000000"/>
      <sparseX i="327" alpha="196754.19219478921149857" sparseCutoff="1.00000000000000000"/>
      <sparseX i="328" alpha="64424.77607155721489107" sparseCutoff="1.00000000000000000"/>
      <sparseX i="329" alpha="24395.19433538321754895" sparseCutoff="1.00000000000000000"/>
      <sparseX i="330" alpha="140042.83142304650391452" sparseCutoff="1.00000000000000000"/>
      <sparseX i="331" alpha="41952.34493154582742136" sparseCutoff="1.00000000000000000"/>
      <sparseX i="332" alpha="131240.20050288017955609" sparseCutoff="1.00000000000000000"/>
      <sparseX i="333" alpha="-150945.93029493978247046" sparseCutoff="1.00000000000000000"/>
      <sparseX i="334" alpha="-6388.76187448310793116" sparseCutoff="1.00000000000000000"/>
      <sparseX i="335" alpha="-116332.82642316984129138" sparseCutoff="1.00000000000000000"/>
      <sparseX i="336" alpha="16199.23981493404971843" sparseCutoff="1.00000000000000000"/>
      <sparseX i="337" alpha="3814.59914980085613934" sparseCutoff="1.00000000000000000"/>
      <sparseX i="338" alpha="128530.85450154441059567" sparseCutoff="1.00000000000000000"/>
      <sparseX i="339" alpha="-191544.89910507533932105" sparseCutoff="1.00000000000000000"/>
      <sparseX i="340" alpha="-301811.90468187775695696" sparseCutoff="1.00000000000000000"/>
      <sparseX i="341" alpha="-231366.95763591813738458" sparseCutoff="1.00000000000000000"/>
      <sparseX i="342" alpha="-42717.18470434615301201" sparseCutoff="1.00000000000000000"/>
      <sparseX i="343" alpha="72911.74331211534445174" sparseCutoff="1.00000000000000000"/>
      <sparseX i="344" alpha="-173723.06372305826516822" sparseCutoff="1.00000000000000000"/>
      <sparseX i="345" alpha="-48851.33804607900674455" sparseCutoff="1.00000000000000000"/>
      <sparseX i="346" alpha="81090.71384842196130194" sparseCutoff="1.00000000000000000"/>
      <sparseX i="347" alpha="100140.03032178551075049" sparseCutoff="1.00000000000000000"/>
      <sparseX i="348" alpha="-125522.97190650209086016" sparseCutoff="1.00000000000000000"/>
      <sparseX i="349" alpha="-284384.44210423092590645" sparseCutoff="1.00000000000000000"/>
      <sparseX i="350" alpha="57036.41046911185549106" sparseCutoff="1.00000000000000000"/>
      <sparseX i="351" alpha="226428.46102804574184120" sparseCutoff="1.00000000000000000"/>
      <sparseX i="352" alpha="-103671.93485708425578196" sparseCutoff="1.00000000000000000"/>
      <sparseX i="353" alpha="-170411.99668951838975772" sparseCutoff="1.00000000000000000"/>
      <sparseX i="354" alpha="263921.07343371771275997" sparseCutoff="1.00000000000000000"/>
      <sparseX i="355" alpha="-88990.73876277040108107" sparseCutoff="1.00000000000000000"/>
      <sparseX i="356" alpha="57542.20114087950787507" sparseCutoff="1.00000000000000000"/>
      <sparseX i="357" alpha="-85367.16014770886977203" sparseCutoff="1.00000000000000000"/>
      <sparseX i="358" alpha="118793.15127592768112663" sparseCutoff="1.00000000000000000"/>
      <sparseX i="359" alpha="233347.11435166519368067" sparseCutoff="1.00000000000000000"/>
      <sparseX i="360" alpha="12084.31229577519661689" sparseCutoff="1.00000000000000000"/>
      <sparseX i="361" alpha="85147.18221681850263849" sparseCutoff="1.00000000000000000"/>
      <sparseX i="362" alpha="-335529.49449713557260111" sparseCutoff="1.00000000000000000"/>
      <sparseX i="363" alpha="109449.27283922518836334" sparseCutoff="1.00000000000000000"/>
      <sparseX i="364" alpha="-144399.01275609340518713" sparseCutoff="1.00000000000000000"/>
      <sparseX i="365" alpha="-26688.05620995509525528" sparseCutoff="1.00000000000000000"/>
      <sparseX i="366" alpha="91347.92499142022279557" sparseCutoff="1.00000000000000000"/>
      <sparseX i="367" alpha="-27185.05830523686745437" sparseCutoff="1.00000000000000000"/>
      <sparseX i="368" alpha="-20625.41265852874494158" sparseCutoff="1.00000000000000000"/>
      <sparseX i="369" alpha="86611.19359615702705923" sparseCutoff="1.00000000000000000"/>
      <sparseX i="370" alpha="80113.62626680852554273" sparseCutoff="1.00000000000000000"/>
      <sparseX i="371" alpha="124116.19410361697373446" sparseCutoff="1.00000000000000000"/>
      <sparseX i="372" alpha="-16462.07360948770656250" sparseCutoff="1.00000000000000000"/>
      <sparseX i="373" alpha="-438055.28503056458430365" sparseCutoff="1.00000000000000000"/>
      <sparseX i="374" alpha="-276228.36802693648496643" sparseCutoff="1.00000000000000000"/>
      <sparseX i="375" alpha="-107952.12085643353930209" sparseCutoff="1.00000000000000000"/>
      <sparseX i="376" alpha="37659.84313198924792232" sparseCutoff="1.00000000000000000"/>
      <sparseX i="377" alpha="171674.70442100393120199" sparseCutoff="1.00000000000000000"/>
      <sparseX i="378" alpha="-242920.57654047422693111" sparseCutoff="1.00000000000000000"/>
      <sparseX i="379" alpha="-84077.29940462623198982" sparseCutoff="1.00000000000000000"/>
      <sparseX i="380" alpha="-20304.94742536482590367" sparseCutoff="1.00000000000000000"/>
      <sparseX i="381" alpha="148660.04371847800211981" sparseCutoff="1.00000000000000000"/>
      <sparseX i="382" alpha="107923.44741277628054377" sparseCutoff="1.00000000000000000"/>
      <sparseX i="383" alpha="-113591.79359878972172737" sparseCutoff="1.00000000000000000"/>
      <sparseX i="384" alpha="-60627.66746032377704978" sparseCutoff="1.00000000000000000"/>
      <sparseX i="385" alpha="-236860.20853427788824774" sparseCutoff="1.00000000000000000"/>
      <sparseX i="386" alpha="33034.78733260468288790" sparseCutoff="1.00000000000000000"/>
      <sparseX i="387" alpha="45187.39574271090532420" sparseCutoff="1.00000000000000000"/>
      <sparseX i="388" alpha="49330.89400877873413265" sparseCutoff="1.00000000000000000"/>
      <sparseX i="389" alpha="-52975.38739121532853460" sparseCutoff="1.00000000000000000"/>
      <sparseX i="390" alpha="-216672.44672203125082888" sparseCutoff="1.00000000000000000"/>
      <sparseX i="391" alpha="-198364.51580383040709421" sparseCutoff="1.00000000000000000"/>
      <sparseX i="392" alpha="-7967.54916853006307065" sparseCutoff="1.00000000000000000"/>
      <sparseX i="393" alpha="-144247.97727810556534678" sparseCutoff="1.00000000000000000"/>
      <sparseX i="394" alpha="-67362.18302182073239237" sparseCutoff="1.00000000000000000"/>
      <sparseX i="395" alpha="67067.76060201515792869" sparseCutoff="1.00000000000000000"/>
      <sparseX i="396" alpha="38431.80806464938359568" sparseCutoff="1.00000000000000000"/>
      <sparseX i="397" alpha="50795.52736485981586156" sparseCutoff="1.00000000000000000"/>
      <sparseX i="398" alpha="-36629.50049562153435545" sparseCutoff="1.00000000000000000"/>
      <sparseX i="399" alpha="-422871.44588785106316209" sparseCutoff="1.00000000000000000"/>
      <sparseX i="400" alpha="91641.25249773811083287" sparseCutoff="1.00000000000000000"/>
      <sparseX i="401" alpha="187391.15549551465664990" sparseCutoff="1.00000000000000000"/>
      <sparseX i="402" alpha="187114.19081806443864480" sparseCutoff="1.00000000000000000"/>
      <sparseX i="403" alpha="-108220.43821185543492902" sparseCutoff="1.00000000000000000"/>
      <sparseX i="404" alpha="-134715.76707892990089022" sparseCutoff="1.00000000000000000"/>
      <sparseX i="405" alpha="-247657.14004327368456870" sparseCutoff="1.00000000000000000"/>
      <sparseX i="406" alpha="-42676.36531814446061617" sparseCutoff="1.00000000000000000"/>
      <sparseX i="407" alpha="267262.79451654548756778" sparseCutoff="1.00000000000000000"/>
      <sparseX i="408" alpha="33514.92686354308534646" sparseCutoff="1.00000000000000000"/>
      <sparseX i="409" alpha="-255019.14193614013493061" sparseCutoff="1.00000000000000000"/>
      <sparseX i="410" alpha="-202681.54712583357468247" sparseCutoff="1.00000000000000000"/>
      <sparseX i="411" alpha="-92130.64722960490325931" sparseCutoff="1.00000000000000000"/>
      <sparseX i="412" alpha="-12085.05171722896920983" sparseCutoff="1.00000000000000000"/>
      <sparseX i="413" alpha="-12493.28305996585004323" sparseCutoff="1.00000000000000000"/>
      <sparseX i="414" alpha="329050.46324823494069278" sparseCutoff="1.00000000000000000"/>
      <sparseX i="415" alpha="-49405.30352234365273034" sparseCutoff="1.00000000000000000"/>
      <sparseX i="416" alpha="32473.41557813423787593" sparseCutoff="1.00000000000000000"/>
      <sparseX i="417" alpha="-377860.42660783405881375" sparseCutoff="1.00000000000000000"/>
      <sparseX i="418" alpha="-221506.98102190269855782" sparseCutoff="1.00000000000000000"/>
      <sparseX i="419" alpha="83268.95546965218090918" sparseCutoff="1.00000000000000000"/>
      <sparseX i="420" alpha="78087.11818796432635281" sparseCutoff="1.00000000000000000"/>
      <sparseX i="421" alpha="-242571.65240013552829623" sparseCutoff="1.00000000000000000"/>
      <sparseX i="422" alpha="-310031.22823386412346736" sparseCutoff="1.00000000000000000"/>
      <sparseX i="423" alpha="-182196.59893850321532227" sparseCutoff="1.00000000000000000"/>
      <sparseX i="424" alpha="-88540.84246131082181819" sparseCutoff="1.00000000000000000"/>
      <sparseX i="425" alpha="-4415.80501515703417681" sparseCutoff="1.00000000000000000"/>
      <sparseX i="426" alpha="161524.70435842333245091" sparseCutoff="1.00000000000000000"/>
      <sparseX i="427" alpha="-187749.95909968472551554" sparseCutoff="1.00000000000000000"/>
      <sparseX i="428" alpha="74540.02918293615221046" sparseCutoff="1.00000000000000000"/>
      <sparseX i="429" alpha="-206232.98168398809502833" sparseCutoff="1.00000000000000000"/>
      <sparseX i="430" alpha="424694.01426620967686176" sparseCutoff="1.00000000000000000"/>
      <sparseX i="431" alpha="55653.74705656213336624" sparseCutoff="1.00000000000000000"/>
      <sparseX i="432" alpha="55044.80568616506207036" sparseCutoff="1.00000000000000000"/>
      <sparseX i="433" alpha="-251812.62520920223323628" sparseCutoff="1.00000000000000000"/>
      <sparseX i="434" alpha="-20559.93920915873241029" sparseCutoff="1.00000000000000000"/>
      <sparseX i="435" alpha="146829.82811106005101465" sparseCutoff="1.00000000000000000"/>
      <sparseX i="436" alpha="-196205.64335403742734343" sparseCutoff="1.00000000000000000"/>
      <sparseX i="437" alpha="-116888.05009698521462269" sparseCutoff="1.00000000000000000"/>
      <sparseX i="438" alpha="-140272.96304234565468505" sparseCutoff="1.00000000000000000"/>
      <sparseX i="439" alpha="103969.67668600972683635" sparseCutoff="1.00000000000000000"/>
      <sparseX i="440" alpha="23058.08113951341510983" sparseCutoff="1.00000000000000000"/>
      <sparseX i="441" alpha="30368.70295481061839382" sparseCutoff="1.00000000000000000"/>
      <sparseX i="442" alpha="-293818.48989782540593296" sparseCutoff="1.00000000000000000"/>
      <sparseX i="443" alpha="127941.08840932916791644" sparseCutoff="1.00000000000000000"/>
      <sparseX i="444" alpha="90383.14623531969846226" sparseCutoff="1.00000000000000000"/>
      <sparseX i="445" alpha="-82624.22501532120804768" sparseCutoff="1.00000000000000000"/>
      <sparseX i="446" alpha="29615.11409126181388274" sparseCutoff="1.00000000000000000"/>
      <sparseX i="447" alpha="41150.72877429960499285" sparseCutoff="1.00000000000000000"/>
      <sparseX i="448" alpha="293536.08947124821133912" sparseCutoff="1.00000000000000000"/>
      <sparseX i="449" alpha="58037.54849727348482702" sparseCutoff="1.00000000000000000"/>
      <sparseX i="450" alpha="-51633.94956166651536478" sparseCutoff="1.00000000000000000"/>
      <sparseX i="451" alpha="107373.46783449900976848" sparseCutoff="1.00000000000000000"/>
      <sparseX i="452" alpha="-107927.16727943523437716" sparseCutoff="1.00000000000000000"/>
      <sparseX i="453" alpha="130619.76588142526452430" sparseCutoff="1.00000000000000000"/>
      <sparseX i="454" alpha="-1432.91082945698440199" sparseCutoff="1.00000000000000000"/>
      <sparseX i="455" alpha="128823.18944963681860827" sparseCutoff="1.00000000000000000"/>
      <sparseX i="456" alpha="-120763.64447984633443411" sparseCutoff="1.00000000000000000"/>
      <sparseX i="457" alpha="-341900.89598824945278466" sparseCutoff="1.00000000000000000"/>
      <sparseX i="458" alpha="-94775.89300562046992127" sparseCutoff="1.00000000000000000"/>
      <sparseX i="459" alpha="-242365.86467764651752077" sparseCutoff="1.00000000000000000"/>
      <sparseX i="460" alpha="44274.30100691677216673" sparseCutoff="1.00000000000000000"/>
      <sparseX i="461" alpha="-516660.12280641176039353" sparseCutoff="1.00000000000000000"/>
      <sparseX i="462" alpha="-193339.52895461561274715" sparseCutoff="1.00000000000000000"/>
      <sparseX i="463" alpha="151658.00322750801569782" sparseCutoff="1.00000000000000000"/>
      <sparseX i="464" alpha="-118057.83737817536166403" sparseCutoff="1.00000000000000000"/>
      <sparseX i="465" alpha="111324.92959917767439038" sparseCutoff="1.00000000000000000"/>
      <sparseX i="466" alpha="127265.14336312990053557" sparseCutoff="1.00000000000000000"/>
      <sparseX i="467" alpha="-2155.22241655917605385" sparseCutoff="1.00000000000000000"/>
      <sparseX i="468" alpha="151264.58837178818066604" sparseCutoff="1.00000000000000000"/>
      <sparseX i="469" alpha="-141640.78978464557440020" sparseCutoff="1.00000000000000000"/>
      <sparseX i="470" alpha="-30280.50163976039038971" sparseCutoff="1.00000000000000000"/>
      <sparseX i="471" alpha="20980.26785142460357747" sparseCutoff="1.00000000000000000"/>
      <sparseX i="472" alpha="39032.90706802975910250" sparseCutoff="1.00000000000000000"/>
      <sparseX i="473" alpha="81249.97338840441079810" sparseCutoff="1.00000000000000000"/>
      <sparseX i="474" alpha="658876.02446028892882168" sparseCutoff="1.00000000000000000"/>
      <sparseX i="475" alpha="331647.78568096639355645" sparseCutoff="1.00000000000000000"/>
      <sparseX i="476" alpha="325020.52506625984096900" sparseCutoff="1.00000000000000000"/>
      <sparseX i="477" alpha="658137.50773622572887689" sparseCutoff="1.00000000000000000"/>
      <sparseX i="478" alpha="29187.36564439909852808" sparseCutoff="1.00000000000000000"/>
      <sparseX i="479" alpha="94797.39056054649699945" sparseCutoff="1.00000000000000000"/>
      <sparseX i="480" alpha="327374.63454831502167508" sparseCutoff="1.00000000000000000"/>
      <sparseX i="481" alpha="87031.69494731747545302" sparseCutoff="1.00000000000000000"/>
      <sparseX i="482" alpha="21980.38651898856551270" sparseCutoff="1.00000000000000000"/>
      <sparseX i="483" alpha="166807.75636069555184804" sparseCutoff="1.00000000000000000"/>
      <sparseX i="484" alpha="-24379.23769627816000138" sparseCutoff="1.00000000000000000"/>
      <sparseX i="485" alpha="-270068.42376525409054011" sparseCutoff="1.00000000000000000"/>
      <sparseX i="486" alpha="290598.85493505612248555" sparseCutoff="1.00000000000000000"/>
      <sparseX i="487" alpha="70476.51017085218336433" sparseCutoff="1.00000000000000000"/>
      <sparseX i="488" alpha="145085.62477343226782978" sparseCutoff="1.00000000000000000"/>
      <sparseX i="489" alpha="9902.27419809275124862" sparseCutoff="1.00000000000000000"/>
      <sparseX i="490" alpha="-97992.98053239840373863" sparseCutoff="1.00000000000000000"/>
      <sparseX i="491" alpha="-23645.90425304598102230" sparseCutoff="1.00000000000000000"/>
      <sparseX i="492" alpha="580064.22395264485385269" sparseCutoff="1.00000000000000000"/>
      <sparseX i="493" alpha="72450.01778849906986579" sparseCutoff="1.00000000000000000"/>
      <sparseX i="494" alpha="252692.50029499252559617" sparseCutoff="1.00000000000000000"/>
      <sparseX i="495" alpha="334530.04188342258566990" sparseCutoff="1.00000000000000000"/>
      <sparseX i="496" alpha="-125216.25976920769608114" sparseCutoff="1.00000000000000000"/>
      <sparseX i="497" alpha="69579.31808329818886705" sparseCutoff="1.00000000000000000"/>
      <sparseX i="498" alpha="-185044.78940906331990846" sparseCutoff="1.00000000000000000"/>
      <sparseX i="499" alpha="111035.53058889578096569" sparseCutoff="1.00000000000000000"/>
      <sparseX i="500" alpha="334835.31635488028405234" sparseCutoff="1.00000000000000000"/>
      <sparseX i="501" alpha="129616.76918442695750855" sparseCutoff="1.00000000000000000"/>
      <sparseX i="502" alpha="-307502.50696937245083973" sparseCutoff="1.00000000000000000"/>
      <sparseX i="503" alpha="194571.13342676119646057" sparseCutoff="1.00000000000000000"/>
      <sparseX i="504" alpha="-3764.54748075839643207" sparseCutoff="1.00000000000000000"/>
      <sparseX i="505" alpha="-39721.95245195880852407" sparseCutoff="1.00000000000000000"/>
      <sparseX i="506" alpha="2147.63239377923719076" sparseCutoff="1.00000000000000000"/>
      <sparseX i="507" alpha="26409.28721395765387570" sparseCutoff="1.00000000000000000"/>
      <sparseX i="508" alpha="1476.36134812109366976" sparseCutoff="1.00000000000000000"/>
      <sparseX i="509" alpha="60948.93363193122058874" sparseCutoff="1.00000000000000000"/>
      <sparseX i="510" alpha="14036.07650908119831001" sparseCutoff="1.00000000000000000"/>
      <sparseX i="511" alpha="-64036.80471146161289653" sparseCutoff="1.00000000000000000"/>
      <sparseX i="512" alpha="579.00014824246420631" sparseCutoff="1.00000000000000000"/>
      <sparseX i="513" alpha="-37169.09630546579137444" sparseCutoff="1.00000000000000000"/>
      <sparseX i="514" alpha="8106.73173586443499516" sparseCutoff="1.00000000000000000"/>
      <sparseX i="515" alpha="-24490.41176756736604148" sparseCutoff="1.00000000000000000"/>
      <sparseX i="516" alpha="-30803.16453569895384135" sparseCutoff="1.00000000000000000"/>
      <sparseX i="517" alpha="-1103.37450351789607339" sparseCutoff="1.00000000000000000"/>
      <sparseX i="518" alpha="60216.29034130409127101" sparseCutoff="1.00000000000000000"/>
      <sparseX i="519" alpha="-56910.42032100007054396" sparseCutoff="1.00000000000000000"/>
      <sparseX i="520" alpha="-21123.13106200385664124" sparseCutoff="1.00000000000000000"/>
      <sparseX i="521" alpha="10042.99540122652979335" sparseCutoff="1.00000000000000000"/>
      <sparseX i="522" alpha="114495.15930307841335889" sparseCutoff="1.00000000000000000"/>
      <sparseX i="523" alpha="29590.64263841949650669" sparseCutoff="1.00000000000000000"/>
      <sparseX i="524" alpha="63518.62025875705148792" sparseCutoff="1.00000000000000000"/>
      <sparseX i="525" alpha="-87997.03906799918331672" sparseCutoff="1.00000000000000000"/>
      <sparseX i="526" alpha="16516.43976471570204012" sparseCutoff="1.00000000000000000"/>
      <sparseX i="527" alpha="8337.10260289269353962" sparseCutoff="1.00000000000000000"/>
      <sparseX i="528" alpha="-22505.90214602290143375" sparseCutoff="1.00000000000000000"/>
      <sparseX i="529" alpha="28663.83680320719213341" sparseCutoff="1.00000000000000000"/>
      <sparseX i="530" alpha="-92439.12995975957892369" sparseCutoff="1.00000000000000000"/>
      <sparseX i="531" alpha="-13029.08378649082987977" sparseCutoff="1.00000000000000000"/>
      <sparseX i="532" alpha="9900.26096099831192987" sparseCutoff="1.00000000000000000"/>
      <sparseX i="533" alpha="6175.14082644639074715" sparseCutoff="1.00000000000000000"/>
      <sparseX i="534" alpha="-178334.39502263444592245" sparseCutoff="1.00000000000000000"/>
      <sparseX i="535" alpha="52219.85359722087014234" sparseCutoff="1.00000000000000000"/>
      <sparseX i="536" alpha="53465.99336373143160017" sparseCutoff="1.00000000000000000"/>
      <sparseX i="537" alpha="21857.57311511392617831" sparseCutoff="1.00000000000000000"/>
      <sparseX i="538" alpha="-139742.51333976420573890" sparseCutoff="1.00000000000000000"/>
      <sparseX i="539" alpha="96054.66280120691226330" sparseCutoff="1.00000000000000000"/>
      <sparseX i="540" alpha="55495.25851109438372077" sparseCutoff="1.00000000000000000"/>
      <sparseX i="541" alpha="-49553.04740078839677153" sparseCutoff="1.00000000000000000"/>
      <sparseX i="542" alpha="-20128.02958356437738985" sparseCutoff="1.00000000000000000"/>
      <sparseX i="543" alpha="-35558.37336449605936650" sparseCutoff="1.00000000000000000"/>
      <sparseX i="544" alpha="-63793.07869206785107963" sparseCutoff="1.00000000000000000"/>
      <sparseX i="545" alpha="-9404.11967478778933582" sparseCutoff="1.00000000000000000"/>
      <sparseX i="546" alpha="4296.51724309956625802" sparseCutoff="1.00000000000000000"/>
      <sparseX i="547" alpha="-39609.31661601670930395" sparseCutoff="1.00000000000000000"/>
      <sparseX i="548" alpha="81759.52407875207427423" sparseCutoff="1.00000000000000000"/>
      <sparseX i="549" alpha="10135.78900993156457844" sparseCutoff="1.00000000000000000"/>
      <sparseX i="550" alpha="-29502.65557347626599949" sparseCutoff="1.00000000000000000"/>
      <sparseX i="551" alpha="-165415.09513087550294586" sparseCutoff="1.00000000000000000"/>
      <sparseX i="552" alpha="-20414.31409701788288658" sparseCutoff="1.00000000000000000"/>
      <sparseX i="553" alpha="20814.72388808633695589" sparseCutoff="1.00000000000000000"/>
      <sparseX i="554" alpha="81345.81664563737285789" sparseCutoff="1.00000000000000000"/>
      <sparseX i="555" alpha="-17362.22244334205606719" sparseCutoff="1.00000000000000000"/>
      <sparseX i="556" alpha="18986.42681389894278254" sparseCutoff="1.00000000000000000"/>
      <sparseX i="557" alpha="-154182.80835036112694070" sparseCutoff="1.00000000000000000"/>
      <sparseX i="558" alpha="-35145.96722336603852455" sparseCutoff="1.00000000000000000"/>
      <sparseX i="559" alpha="66587.46749262242519762" sparseCutoff="1.00000000000000000"/>
      <sparseX i="560" alpha="-42895.43985436888760887" sparseCutoff="1.00000000000000000"/>
      <sparseX i="561" alpha="110145.00431340957584325" sparseCutoff="1.00000000000000000"/>
      <sparseX i="562" alpha="74536.50542105067870580" sparseCutoff="1.00000000000000000"/>
      <sparseX i="563" alpha="-10754.18207691917268676" sparseCutoff="1.00000000000000000"/>
      <sparseX i="564" alpha="51775.14060124094976345" sparseCutoff="1.00000000000000000"/>
      <sparseX i="565" alpha="4924.88092321769545379" sparseCutoff="1.00000000000000000"/>
      <sparseX i="566" alpha="-16754.12551536284809117" sparseCutoff="1.00000000000000000"/>
      <sparseX i="567" alpha="12209.25927618707100919" sparseCutoff="1.00000000000000000"/>
      <sparseX i="568" alpha="1873.64967321779658960" sparseCutoff="1.00000000000000000"/>
      <sparseX i="569" alpha="51824.55840096971223829" sparseCutoff="1.00000000000000000"/>
      <sparseX i="570" alpha="-9246.55601390760421054" sparseCutoff="1.00000000000000000"/>
      <sparseX i="571" alpha="-128552.31505806495260913" sparseCutoff="1.00000000000000000"/>
      <sparseX i="572" alpha="-30353.99446495861411677" sparseCutoff="1.00000000000000000"/>
      <sparseX i="573" alpha="-7340.54856960943016020" sparseCutoff="1.00000000000000000"/>
      <sparseX i="574" alpha="-20591.13144975482282462" sparseCutoff="1.00000000000000000"/>
      <sparseX i="575" alpha="-17318.61056545606334112" sparseCutoff="1.00000000000000000"/>
      <sparseX i="576" alpha="29093.00012894341489300" sparseCutoff="1.00000000000000000"/>
      <sparseX i="577" alpha="123304.13951256082509644" sparseCutoff="1.00000000000000000"/>
      <sparseX i="578" alpha="-22421.28926615828095237" sparseCutoff="1.00000000000000000"/>
      <sparseX i="579" alpha="-8152.84899940915511252" sparseCutoff="1.00000000000000000"/>
      <sparseX i="580" alpha="83909.48052845797792543" sparseCutoff="1.00000000000000000"/>
      <sparseX i="581" alpha="-98322.51442285299708601" sparseCutoff="1.00000000000000000"/>
      <sparseX i="582" alpha="-51124.94270890644111205" sparseCutoff="1.00000000000000000"/>
      <sparseX i="583" alpha="-2806.62162326957013647" sparseCutoff="1.00000000000000000"/>
      <sparseX i="584" alpha="5212.56813484751546639" sparseCutoff="1.00000000000000000"/>
      <sparseX i="585" alpha="55629.63274157468549674" sparseCutoff="1.00000000000000000"/>
      <sparseX i="586" alpha="-20130.56959133243799442" sparseCutoff="1.00000000000000000"/>
      <sparseX i="587" alpha="74859.02825762002612464" sparseCutoff="1.00000000000000000"/>
      <sparseX i="588" alpha="-36855.65601288066682173" sparseCutoff="1.00000000000000000"/>
      <sparseX i="589" alpha="87396.49915964955289382" sparseCutoff="1.00000000000000000"/>
      <sparseX i="590" alpha="28006.98173653873163857" sparseCutoff="1.00000000000000000"/>
      <sparseX i="591" alpha="-95744.91431259810633492" sparseCutoff="1.00000000000000000"/>
      <sparseX i="592" alpha="108082.17822127566614654" sparseCutoff="1.00000000000000000"/>
      <sparseX i="593" alpha="40023.14681875053793192" sparseCutoff="1.00000000000000000"/>
      <sparseX i="594" alpha="88238.66792836220702156" sparseCutoff="1.00000000000000000"/>
      <sparseX i="595" alpha="25162.73285394200138398" sparseCutoff="1.00000000000000000"/>
      <sparseX i="596" alpha="-10595.49788212006751564" sparseCutoff="1.00000000000000000"/>
      <sparseX i="597" alpha="-1358.23635035366237389" sparseCutoff="1.00000000000000000"/>
      <sparseX i="598" alpha="-39006.84307668995461427" sparseCutoff="1.00000000000000000"/>
      <sparseX i="599" alpha="47726.81765330157213612" sparseCutoff="1.00000000000000000"/>
      <sparseX i="600" alpha="-11770.80045309376691876" sparseCutoff="1.00000000000000000"/>
      <sparseX i="601" alpha="114938.06844098622968886" sparseCutoff="1.00000000000000000"/>
      <sparseX i="602" alpha="-27643.99364411273927544" sparseCutoff="1.00000000000000000"/>
      <sparseX i="603" alpha="-13178.51473485771748528" sparseCutoff="1.00000000000000000"/>
      <sparseX i="604" alpha="-8894.99383596153165854" sparseCutoff="1.00000000000000000"/>
      <sparseX i="605" alpha="30856.59958110779189155" sparseCutoff="1.00000000000000000"/>
      <sparseX i="606" alpha="-74328.48511815845267847" sparseCutoff="1.00000000000000000"/>
      <sparseX i="607" alpha="-10534.76309270865749568" sparseCutoff="1.00000000000000000"/>
      <sparseX i="608" alpha="5126.78051626958949782" sparseCutoff="1.00000000000000000"/>
      <sparseX i="609" alpha="73577.04647922723961528" sparseCutoff="1.00000000000000000"/>
      <sparseX i="610" alpha="-90463.13438878435408697" sparseCutoff="1.00000000000000000"/>
      <sparseX i="611" alpha="-38536.84296607770374976" sparseCutoff="1.00000000000000000"/>
      <sparseX i="612" alpha="-89378.33064026734791696" sparseCutoff="1.00000000000000000"/>
      <sparseX i="613" alpha="-23018.24808938552087056" sparseCutoff="1.00000000000000000"/>
      <sparseX i="614" alpha="-14837.31307343710432178" sparseCutoff="1.00000000000000000"/>
      <sparseX i="615" alpha="42791.48127681445475901" sparseCutoff="1.00000000000000000"/>
      <sparseX i="616" alpha="-144361.08521696529351175" sparseCutoff="1.00000000000000000"/>
      <sparseX i="617" alpha="-45390.19722323076712200" sparseCutoff="1.00000000000000000"/>
      <sparseX i="618" alpha="-55089.01664540604542708" sparseCutoff="1.00000000000000000"/>
      <sparseX i="619" alpha="50615.35715787327353610" sparseCutoff="1.00000000000000000"/>
      <sparseX i="620" alpha="-14080.29625255746759649" sparseCutoff="1.00000000000000000"/>
      <sparseX i="621" alpha="33266.70629664097214118" sparseCutoff="1.00000000000000000"/>
      <sparseX i="622" alpha="-38471.18039626093377592" sparseCutoff="1.00000000000000000"/>
      <sparseX i="623" alpha="-80120.41472079644154292" sparseCutoff="1.00000000000000000"/>
      <sparseX i="624" alpha="121152.94048191625915933" sparseCutoff="1.00000000000000000"/>
      <sparseX i="625" alpha="-39671.46530715278640855" sparseCutoff="1.00000000000000000"/>
      <sparseX i="626" alpha="-20649.88531053108090418" sparseCutoff="1.00000000000000000"/>
      <sparseX i="627" alpha="-30500.15773337010978139" sparseCutoff="1.00000000000000000"/>
      <sparseX i="628" alpha="97394.38326843015966006" sparseCutoff="1.00000000000000000"/>
      <sparseX i="629" alpha="36954.56754505805292865" sparseCutoff="1.00000000000000000"/>
      <sparseX i="630" alpha="-24371.14078471771063050" sparseCutoff="1.00000000000000000"/>
      <sparseX i="631" alpha="38873.15573211716400692" sparseCutoff="1.00000000000000000"/>
      <sparseX i="632" alpha="49597.37017284737521550" sparseCutoff="1.00000000000000000"/>
      <sparseX i="633" alpha="20657.65248949584201910" sparseCutoff="1.00000000000000000"/>
      <sparseX i="634" alpha="73816.46876799684832804" sparseCutoff="1.00000000000000000"/>
      <sparseX i="635" alpha="1997.44895806343265576" sparseCutoff="1.00000000000000000"/>
      <sparseX i="636" alpha="22591.61766014436943806" sparseCutoff="1.00000000000000000"/>
      <sparseX i="637" alpha="-54119.25838796699099476" sparseCutoff="1.00000000000000000"/>
      <sparseX i="638" alpha="34527.33552313587279059" sparseCutoff="1.00000000000000000"/>
      <sparseX i="639" alpha="12832.78454420585876505" sparseCutoff="1.00000000000000000"/>
      <sparseX i="640" alpha="105948.04466134474205319" sparseCutoff="1.00000000000000000"/>
      <sparseX i="641" alpha="-107138.24178526042669546" sparseCutoff="1.00000000000000000"/>
      <sparseX i="642" alpha="302232.94384773704223335" sparseCutoff="1.00000000000000000"/>
      <sparseX i="643" alpha="-87453.05928984128695447" sparseCutoff="1.00000000000000000"/>
      <sparseX i="644" alpha="36239.26288473040767713" sparseCutoff="1.00000000000000000"/>
      <sparseX i="645" alpha="144160.25770591187756509" sparseCutoff="1.00000000000000000"/>
      <sparseX i="646" alpha="-27112.62020242211292498" sparseCutoff="1.00000000000000000"/>
      <sparseX i="647" alpha="44017.62954852158145513" sparseCutoff="1.00000000000000000"/>
      <sparseX i="648" alpha="857.50458433198855346" sparseCutoff="1.00000000000000000"/>
      <sparseX i="649" alpha="-39816.11825663092167815" sparseCutoff="1.00000000000000000"/>
      <sparseX i="650" alpha="-13580.12386871785383846" sparseCutoff="1.00000000000000000"/>
      <sparseX i="651" alpha="-22542.62639421775020310" sparseCutoff="1.00000000000000000"/>
      <sparseX i="652" alpha="-79076.60729655835893936" sparseCutoff="1.00000000000000000"/>
      <sparseX i="653" alpha="-66852.87436812897794880" sparseCutoff="1.00000000000000000"/>
      <sparseX i="654" alpha="1520.54836322269602533" sparseCutoff="1.00000000000000000"/>
      <sparseX i="655" alpha="30488.35609650654441793" sparseCutoff="1.00000000000000000"/>
      <sparseX i="656" alpha="-141345.57304451314848848" sparseCutoff="1.00000000000000000"/>
      <sparseX i="657" alpha="94462.20931839865806978" sparseCutoff="1.00000000000000000"/>
      <sparseX i="658" alpha="46774.64224545236356789" sparseCutoff="1.00000000000000000"/>
      <sparseX i="659" alpha="-61331.54237529468082357" sparseCutoff="1.00000000000000000"/>
      <sparseX i="660" alpha="23282.54921955883764895" sparseCutoff="1.00000000000000000"/>
      <sparseX i="661" alpha="183247.89328651450341567" sparseCutoff="1.00000000000000000"/>
      <sparseX i="662" alpha="65578.61814442210015841" sparseCutoff="1.00000000000000000"/>
      <sparseX i="663" alpha="120988.22834812903602142" sparseCutoff="1.00000000000000000"/>
      <sparseX i="664" alpha="-97916.22627722728066146" sparseCutoff="1.00000000000000000"/>
      <sparseX i="665" alpha="-3526.75727242359971569" sparseCutoff="1.00000000000000000"/>
      <sparseX i="666" alpha="-20394.37180679242374026" sparseCutoff="1.00000000000000000"/>
      <sparseX i="667" alpha="-28671.88172077219496714" sparseCutoff="1.00000000000000000"/>
      <sparseX i="668" alpha="-15431.30658029641199391" sparseCutoff="1.00000000000000000"/>
      <sparseX i="669" alpha="67706.40236754973011557" sparseCutoff="1.00000000000000000"/>
      <sparseX i="670" alpha="-63378.74908626289106905" sparseCutoff="1.00000000000000000"/>
      <sparseX i="671" alpha="-114270.13884151857928373" sparseCutoff="1.00000000000000000"/>
      <sparseX i="672" alpha="-50283.63473599882127019" sparseCutoff="1.00000000000000000"/>
      <sparseX i="673" alpha="44313.09075755069352454" sparseCutoff="1.00000000000000000"/>
      <sparseX i="674" alpha="-11078.07608222247290541" sparseCutoff="1.00000000000000000"/>
      <sparseX i="675" alpha="-142055.17207822939963080" sparseCutoff="1.00000000000000000"/>
      <sparseX i="676" alpha="-32279.09595050766074564" sparseCutoff="1.00000000000000000"/>
      <sparseX i="677" alpha="-34715.50801427976693958" sparseCutoff="1.00000000000000000"/>
      <sparseX i="678" alpha="64553.71334524714620784" sparseCutoff="1.00000000000000000"/>
      <sparseX i="679" alpha="134562.61307867322466336" sparseCutoff="1.00000000000000000"/>
      <sparseX i="680" alpha="7921.82133692473144038" sparseCutoff="1.00000000000000000"/>
      <sparseX i="681" alpha="-107058.96815245061588939" sparseCutoff="1.00000000000000000"/>
      <sparseX i="682" alpha="170797.95532548785558902" sparseCutoff="1.00000000000000000"/>
      <sparseX i="683" alpha="33522.59387820037954953" sparseCutoff="1.00000000000000000"/>
      <sparseX i="684" alpha="9669.95581796187252621" sparseCutoff="1.00000000000000000"/>
      <sparseX i="685" alpha="143559.65233623259700835" sparseCutoff="1.00000000000000000"/>
      <sparseX i="686" alpha="-51791.84050727418798488" sparseCutoff="1.00000000000000000"/>
      <sparseX i="687" alpha="41922.19595243220101111" sparseCutoff="1.00000000000000000"/>
      <sparseX i="688" alpha="-3544.26973712045673892" sparseCutoff="1.00000000000000000"/>
      <sparseX i="689" alpha="-501262.79230268707033247" sparseCutoff="1.00000000000000000"/>
      <sparseX i="690" alpha="-224258.37915751338005066" sparseCutoff="1.00000000000000000"/>
      <sparseX i="691" alpha="-19519.76274093000029097" sparseCutoff="1.00000000000000000"/>
      <sparseX i="692" alpha="-4732.16589750117418589" sparseCutoff="1.00000000000000000"/>
      <sparseX i="693" alpha="-55960.25119026634638431" sparseCutoff="1.00000000000000000"/>
      <sparseX i="694" alpha="-142246.08411831021658145" sparseCutoff="1.00000000000000000"/>
      <sparseX i="695" alpha="-7786.45314466050331248" sparseCutoff="1.00000000000000000"/>
      <sparseX i="696" alpha="3465.55000058225914472" sparseCutoff="1.00000000000000000"/>
      <sparseX i="697" alpha="-7249.29930238767974515" sparseCutoff="1.00000000000000000"/>
      <sparseX i="698" alpha="78983.36727066124149133" sparseCutoff="1.00000000000000000"/>
      <sparseX i="699" alpha="-161881.51574877495295368" sparseCutoff="1.00000000000000000"/>
      <sparseX i="700" alpha="136048.40607057328452356" sparseCutoff="1.00000000000000000"/>
      <sparseX i="701" alpha="25786.96306666553209652" sparseCutoff="1.00000000000000000"/>
      <sparseX i="702" alpha="22178.34332929798983969" sparseCutoff="1.00000000000000000"/>
      <sparseX i="703" alpha="96822.53884148492943496" sparseCutoff="1.00000000000000000"/>
      <sparseX i="704" alpha="67017.63220163781079464" sparseCutoff="1.00000000000000000"/>
      <sparseX i="705" alpha="-67651.14597100572427735" sparseCutoff="1.00000000000000000"/>
      <sparseX i="706" alpha="-23218.29851418690668652" sparseCutoff="1.00000000000000000"/>
      <sparseX i="707" alpha="41238.99868297399370931" sparseCutoff="1.00000000000000000"/>
      <sparseX i="708" alpha="144212.75691752842976712" sparseCutoff="1.00000000000000000"/>
      <sparseX i="709" alpha="867.82821326555847463" sparseCutoff="1.00000000000000000"/>
      <sparseX i="710" alpha="76149.49940037705528084" sparseCutoff="1.00000000000000000"/>
      <sparseX i="711" alpha="-8139.77702773121473001" sparseCutoff="1.00000000000000000"/>
      <sparseX i="712" alpha="-64532.86695940434583463" sparseCutoff="1.00000000000000000"/>
      <sparseX i="713" alpha="-54324.58937475694256136" sparseCutoff="1.00000000000000000"/>
      <sparseX i="714" alpha="133212.24412241898244247" sparseCutoff="1.00000000000000000"/>
      <sparseX i="715" alpha="-155486.25508115501725115" sparseCutoff="1.00000000000000000"/>
      <sparseX i="716" alpha="-16401.01241850006408640" sparseCutoff="1.00000000000000000"/>
      <sparseX i="717" alpha="-237385.54236542433500290" sparseCutoff="1.00000000000000000"/>
      <sparseX i="718" alpha="7588.55678493116101890" sparseCutoff="1.00000000000000000"/>
      <sparseX i="719" alpha="-72892.56923500225821044" sparseCutoff="1.00000000000000000"/>
      <sparseX i="720" alpha="-9343.89977694876324676" sparseCutoff="1.00000000000000000"/>
      <sparseX i="721" alpha="-32962.01332774104230339" sparseCutoff="1.00000000000000000"/>
      <sparseX i="722" alpha="12068.24649413650149654" sparseCutoff="1.00000000000000000"/>
      <sparseX i="723" alpha="384199.12033407372655347" sparseCutoff="1.00000000000000000"/>
      <sparseX i="724" alpha="68559.48544506171310786" sparseCutoff="1.00000000000000000"/>
      <sparseX i="725" alpha="-93694.09133979996840935" sparseCutoff="1.00000000000000000"/>
      <sparseX i="726" alpha="-70912.44132535434619058" sparseCutoff="1.00000000000000000"/>
      <sparseX i="727" alpha="-110181.53748547857685480" sparseCutoff="1.00000000000000000"/>
      <sparseX i="728" alpha="-195270.52226402497035451" sparseCutoff="1.00000000000000000"/>
      <sparseX i="729" alpha="258624.15330845894641243" sparseCutoff="1.00000000000000000"/>
      <sparseX i="730" alpha="59714.27449446650280152" sparseCutoff="1.00000000000000000"/>
      <sparseX i="731" alpha="243848.07834778563119471" sparseCutoff="1.00000000000000000"/>
      <sparseX i="732" alpha="-69066.83576391759561375" sparseCutoff="1.00000000000000000"/>
      <sparseX i="733" alpha="-18673.00354430642255466" sparseCutoff="1.00000000000000000"/>
      <sparseX i="734" alpha="90475.76957964325265493" sparseCutoff="1.00000000000000000"/>
      <sparseX i="735" alpha="59742.15069352997670649" sparseCutoff="1.00000000000000000"/>
      <sparseX i="736" alpha="77699.35789265409403015" sparseCutoff="1.00000000000000000"/>
      <sparseX i="737" alpha="-53192.06749628090619808" sparseCutoff="1.00000000000000000"/>
      <sparseX i="738" alpha="-34635.17497932066180510" sparseCutoff="1.00000000000000000"/>
      <sparseX i="739" alpha="-15838.80879443808407814" sparseCutoff="1.00000000000000000"/>
      <sparseX i="740" alpha="-1914.45272038365942535" sparseCutoff="1.00000000000000000"/>
      <sparseX i="741" alpha="-192731.18155117219430394" sparseCutoff="1.00000000000000000"/>
      <sparseX i="742" alpha="-33397.43023972270020749" sparseCutoff="1.00000000000000000"/>
      <sparseX i="743" alpha="-29217.69059297148123733" sparseCutoff="1.00000000000000000"/>
      <sparseX i="744" alpha="-77548.37442546492093243" sparseCutoff="1.00000000000000000"/>
      <sparseX i="745" alpha="-43002.34065889631892787" sparseCutoff="1.00000000000000000"/>
      <sparseX i="746" alpha="31614.57363401043039630" sparseCutoff="1.00000000000000000"/>
      <sparseX i="747" alpha="97400.92244079157535452" sparseCutoff="1.00000000000000000"/>
      <sparseX i="748" alpha="46418.92101930169883417" sparseCutoff="1.00000000000000000"/>
      <sparseX i="749" alpha="126133.09477629305911250" sparseCutoff="1.00000000000000000"/>
      <sparseX i="750" alpha="-9474.30919991077462328" sparseCutoff="1.00000000000000000"/>
      <sparseX i="751" alpha="96563.57128796061442699" sparseCutoff="1.00000000000000000"/>
      <sparseX i="752" alpha="49376.49903159618406789" sparseCutoff="1.00000000000000000"/>
      <sparseX i="753" alpha="206701.14925416564801708" sparseCutoff="1.00000000000000000"/>
      <sparseX i="754" alpha="29723.27178573023047647" sparseCutoff="1.00000000000000000"/>
      <sparseX i="755" alpha="-981.04353868674536443" sparseCutoff="1.00000000000000000"/>
      <sparseX i="756" alpha="-28716.69266489266010467" sparseCutoff="1.00000000000000000"/>
      <sparseX i="757" alpha="22378.20369633703376167" sparseCutoff="1.00000000000000000"/>
      <sparseX i="758" alpha="-72120.99614499247400090" sparseCutoff="1.00000000000000000"/>
      <sparseX i="759" alpha="-63898.28069494355440838" sparseCutoff="1.00000000000000000"/>
      <sparseX i="760" alpha="-153800.63103131906245835" sparseCutoff="1.00000000000000000"/>
      <sparseX i="761" alpha="-174333.07676671966328286" sparseCutoff="1.00000000000000000"/>
      <sparseX i="762" alpha="-73173.07611435060971417" sparseCutoff="1.00000000000000000"/>
      <sparseX i="763" alpha="36125.15026390346611151" sparseCutoff="1.00000000000000000"/>
      <sparseX i="764" alpha="-23338.48666706977019203" sparseCutoff="1.00000000000000000"/>
      <sparseX i="765" alpha="123335.61422725251759402" sparseCutoff="1.00000000000000000"/>
      <sparseX i="766" alpha="-113820.85380086247459985" sparseCutoff="1.00000000000000000"/>
      <sparseX i="767" alpha="-74431.74168294503760990" sparseCutoff="1.00000000000000000"/>
      <sparseX i="768" alpha="-37776.15372736887366045" sparseCutoff="1.00000000000000000"/>
      <sparseX i="769" alpha="24816.00159670698485570" sparseCutoff="1.00000000000000000"/>
      <sparseX i="770" alpha="-95421.48577487548755016" sparseCutoff="1.00000000000000000"/>
      <sparseX i="771" alpha="-218451.47181668155826628" sparseCutoff="1.00000000000000000"/>
      <sparseX i="772" alpha="-12932.47964098354714224" sparseCutoff="1.00000000000000000"/>
      <sparseX i="773" alpha="-131255.25703127722954378" sparseCutoff="1.00000000000000000"/>
      <sparseX i="774" alpha="44542.49251889314473374" sparseCutoff="1.00000000000000000"/>
      <sparseX i="775" alpha="116493.28318973146087956" sparseCutoff="1.00000000000000000"/>
      <sparseX i="776" alpha="-234877.82042300596367568" sparseCutoff="1.00000000000000000"/>
      <sparseX i="777" alpha="-10771.56153808569979446" sparseCutoff="1.00000000000000000"/>
      <sparseX i="778" alpha="92179.46102820330997929" sparseCutoff="1.00000000000000000"/>
      <sparseX i="779" alpha="28504.54001693671307294" sparseCutoff="1.00000000000000000"/>
